{"learner":{"attributes":{"scikit_learn":"{\"_estimator_type\": \"regressor\"}"},"feature_names":["last_price","Qty","shares_held","Owned","Value","ticker_encoded","transaction_type_S - Sale","transaction_type_S - Sale+OE"],"feature_types":["float","float","float","float","float","float","i","i"],"gradient_booster":{"model":{"gbtree_model_param":{"num_parallel_tree":"1","num_trees":"300"},"iteration_indptr":[0,1,2,3,4,5,6,7,8,9,10,11,12,13,14,15,16,17,18,19,20,21,22,23,24,25,26,27,28,29,30,31,32,33,34,35,36,37,38,39,40,41,42,43,44,45,46,47,48,49,50,51,52,53,54,55,56,57,58,59,60,61,62,63,64,65,66,67,68,69,70,71,72,73,74,75,76,77,78,79,80,81,82,83,84,85,86,87,88,89,90,91,92,93,94,95,96,97,98,99,100,101,102,103,104,105,106,107,108,109,110,111,112,113,114,115,116,117,118,119,120,121,122,123,124,125,126,127,128,129,130,131,132,133,134,135,136,137,138,139,140,141,142,143,144,145,146,147,148,149,150,151,152,153,154,155,156,157,158,159,160,161,162,163,164,165,166,167,168,169,170,171,172,173,174,175,176,177,178,179,180,181,182,183,184,185,186,187,188,189,190,191,192,193,194,195,196,197,198,199,200,201,202,203,204,205,206,207,208,209,210,211,212,213,214,215,216,217,218,219,220,221,222,223,224,225,226,227,228,229,230,231,232,233,234,235,236,237,238,239,240,241,242,243,244,245,246,247,248,249,250,251,252,253,254,255,256,257,258,259,260,261,262,263,264,265,266,267,268,269,270,271,272,273,274,275,276,277,278,279,280,281,282,283,284,285,286,287,288,289,290,291,292,293,294,295,296,297,298,299,300],"tree_info":[0,0,0,0,0,0,0,0,0,0,0,0,0,0,0,0,0,0,0,0,0,0,0,0,0,0,0,0,0,0,0,0,0,0,0,0,0,0,0,0,0,0,0,0,0,0,0,0,0,0,0,0,0,0,0,0,0,0,0,0,0,0,0,0,0,0,0,0,0,0,0,0,0,0,0,0,0,0,0,0,0,0,0,0,0,0,0,0,0,0,0,0,0,0,0,0,0,0,0,0,0,0,0,0,0,0,0,0,0,0,0,0,0,0,0,0,0,0,0,0,0,0,0,0,0,0,0,0,0,0,0,0,0,0,0,0,0,0,0,0,0,0,0,0,0,0,0,0,0,0,0,0,0,0,0,0,0,0,0,0,0,0,0,0,0,0,0,0,0,0,0,0,0,0,0,0,0,0,0,0,0,0,0,0,0,0,0,0,0,0,0,0,0,0,0,0,0,0,0,0,0,0,0,0,0,0,0,0,0,0,0,0,0,0,0,0,0,0,0,0,0,0,0,0,0,0,0,0,0,0,0,0,0,0,0,0,0,0,0,0,0,0,0,0,0,0,0,0,0,0,0,0,0,0,0,0,0,0,0,0,0,0,0,0,0,0,0,0,0,0,0,0,0,0,0,0,0,0,0,0,0,0,0,0,0,0,0,0,0,0,0,0,0,0,0,0,0,0,0,0],"trees":[{"base_weights":[-0E0,-3.685815E-2,2.2509564E-1,-1.175713E-1,-5.880238E-3,2.5776535E-1,-2.4387263E-1,-2.483756E-1,-8.290595E-2,6.932267E-2,-2.330652E-2,-2.668434E-1,2.8261125E-1,-2.2737829E-2,1.2880312E-1,-1.3094223E-1,-3.5570186E-1,-2.8095445E-1,-7.1184754E-2,-7.609586E-2,1.0746997E-1,-5.3345602E-2,1.5803514E-2,-2.7619392E-1,3.8623267E-1,2.3871703E-1,5.52601E-1,3.4323454E-2,1.7266218E-1,-1.9177007E-2,-1.6748057E-1,-3.7182835E-1,-7.51973E-2,-4.6356097E-1,-2.4013634E-1,-1.3392033E-1,-3.9625652E-2,4.7706306E-2,-4.5283714E-1,1.4445081E-1,-1.1189631E-2,-8.1144996E-2,-1.5232648E-2,2.1011539E-2,-1.562229E-1,-1.3850865E-2,-0E0,1.1174432E-1,2.390475E-2,2.1871461E-1,8.871574E-1,2.3521155E-2,3.5782594E-2,-0E0,7.960088E-2,1.5309939E-1,4.130586E-1,-7.635138E-4,-2.3232143E-2,-1.1273257E-2,-2.6025735E-3,-1.9745698E-2,-1.5704026E-2,-9.516803E-3,-2.7914646E-3,-2.6664088E-2,-1.878668E-2,-1.4337741E-2,-1.0391742E-2,-6.7519704E-3,-3.237436E-3,1.12084225E-2,-2.7607963E-3,4.0190067E-4,6.581147E-3,-0E0,-2.3221435E-2,6.5582856E-3,1.0168626E-2,-1.1477753E-3,1.0637143E-3,-4.9162367E-3,-1.2574298E-3,2.630811E-4,-3.8326662E-3,3.2254597E-4,3.8066474E-3,-9.208887E-3,6.7533404E-3,-0E0,9.438764E-3,1.4412129E-2,9.93798E-3,3.4194943E-2,5.388713E-2,1.6160099E-3,-2.529388E-3,4.4051427E-3,-7.285979E-4,5.88711E-3,1.114204E-2,2.4426945E-2,-4.5610922E-3],"categories":[],"categories_nodes":[],"categories_segments":[],"categories_sizes":[],"default_left":[0,0,0,0,0,0,0,0,0,0,0,0,0,0,0,0,0,0,0,0,0,0,0,0,0,0,0,0,0,0,0,0,0,0,0,0,0,0,0,0,0,0,0,0,0,0,0,0,0,0,0,0,0,0,0,0,0,0,0,0,0,0,0,0,0,0,0,0,0,0,0,0,0,0,0,0,0,0,0,0,0,0,0,0,0,0,0,0,0,0,0,0,0,0,0,0,0,0,0,0,0,0,0],"id":0,"left_children":[1,3,5,7,9,11,13,15,17,19,21,23,25,-1,27,29,31,33,35,37,39,41,43,45,47,49,51,53,55,57,59,61,63,65,67,69,71,73,75,77,79,81,83,85,87,-1,-1,89,-1,91,93,-1,-1,95,97,99,101,-1,-1,-1,-1,-1,-1,-1,-1,-1,-1,-1,-1,-1,-1,-1,-1,-1,-1,-1,-1,-1,-1,-1,-1,-1,-1,-1,-1,-1,-1,-1,-1,-1,-1,-1,-1,-1,-1,-1,-1,-1,-1,-1,-1,-1,-1],"loss_changes":[7.974452E2,2.0649597E2,2.0726794E2,1.0381293E2,7.821778E1,1.6488422E2,6.933695E1,6.037381E1,4.1984108E1,6.22974E1,5.6937145E1,3.5891647E0,1.428653E2,0E0,1.2952886E0,9.342152E0,1.1262054E1,7.354645E0,3.383259E1,1.088946E2,3.9050644E1,2.9030823E1,1.884969E1,1.5481567E-1,9.791815E-2,1.344151E2,2.215216E1,1.6818985E-1,9.001894E-1,9.312314E-1,1.1521328E1,2.9631348E0,2.7208513E-1,8.30513E-1,1.1391335E0,4.141693E-1,4.679352E1,5.8336077E0,3.0445175E0,5.2493134E0,8.081156E-1,1.5230911E1,1.45632305E1,1.6391476E1,5.063241E0,0E0,0E0,4.927297E-2,0E0,1.3875702E1,1.1108566E1,0E0,0E0,9.893595E-2,4.5238912E-2,4.391675E-1,6.6852427E-1,0E0,0E0,0E0,0E0,0E0,0E0,0E0,0E0,0E0,0E0,0E0,0E0,0E0,0E0,0E0,0E0,0E0,0E0,0E0,0E0,0E0,0E0,0E0,0E0,0E0,0E0,0E0,0E0,0E0,0E0,0E0,0E0,0E0,0E0,0E0,0E0,0E0,0E0,0E0,0E0,0E0,0E0,0E0,0E0,0E0,0E0],"parents":[2147483647,0,0,1,1,2,2,3,3,4,4,5,5,6,6,7,7,8,8,9,9,10,10,11,11,12,12,14,14,15,15,16,16,17,17,18,18,19,19,20,20,21,21,22,22,23,23,24,24,25,25,26,26,27,27,28,28,29,29,30,30,31,31,32,32,33,33,34,34,35,35,36,36,37,37,38,38,39,39,40,40,41,41,42,42,43,43,44,44,47,47,49,49,50,50,53,53,54,54,55,55,56,56],"right_children":[2,4,6,8,10,12,14,16,18,20,22,24,26,-1,28,30,32,34,36,38,40,42,44,46,48,50,52,54,56,58,60,62,64,66,68,70,72,74,76,78,80,82,84,86,88,-1,-1,90,-1,92,94,-1,-1,96,98,100,102,-1,-1,-1,-1,-1,-1,-1,-1,-1,-1,-1,-1,-1,-1,-1,-1,-1,-1,-1,-1,-1,-1,-1,-1,-1,-1,-1,-1,-1,-1,-1,-1,-1,-1,-1,-1,-1,-1,-1,-1,-1,-1,-1,-1,-1,-1],"split_conditions":[8.580083E-1,-3.2828736E-1,-7.4986704E-3,-1.3652754E-1,-1.3646734E-1,-1.3654342E-1,-2.647417E-2,-7.5409086E-3,-1.3045248E0,-1.365375E-1,-1.786348E-1,-2.6471809E-2,1E0,-2.2737829E-2,9.7559327E-1,-2.4672828E0,-2.647417E-2,-2.4672828E0,-1.3651061E-1,4.5852196E-1,-2.647417E-2,-1.2845623E-1,8.3667505E-1,1.1149403E0,1.4001772E0,3.1037962E0,-1.3620353E-1,-2.6342798E-2,3.1037962E0,-2.647417E-2,-5.815843E-1,-7.5361733E-3,-8.257671E-1,-3.002113E0,-1.7327194E0,-2.6473634E-2,-1.3649547E-1,1E0,1E0,-1.3648579E-1,-3.172032E-2,-2.647417E-2,-1.2356038E-1,2.0912804E-1,-2.6465962E-2,-1.3850865E-2,-0E0,-7.5663435E-3,2.390475E-2,-1.2641992E-1,2.045004E-3,2.3521155E-2,3.5782594E-2,-7.3973914E-3,2.6997662E-1,-2.5066309E-2,-7.273359E-3,-7.635138E-4,-2.3232143E-2,-1.1273257E-2,-2.6025735E-3,-1.9745698E-2,-1.5704026E-2,-9.516803E-3,-2.7914646E-3,-2.6664088E-2,-1.878668E-2,-1.4337741E-2,-1.0391742E-2,-6.7519704E-3,-3.237436E-3,1.12084225E-2,-2.7607963E-3,4.0190067E-4,6.581147E-3,-0E0,-2.3221435E-2,6.5582856E-3,1.0168626E-2,-1.1477753E-3,1.0637143E-3,-4.9162367E-3,-1.2574298E-3,2.630811E-4,-3.8326662E-3,3.2254597E-4,3.8066474E-3,-9.208887E-3,6.7533404E-3,-0E0,9.438764E-3,1.4412129E-2,9.93798E-3,3.4194943E-2,5.388713E-2,1.6160099E-3,-2.529388E-3,4.4051427E-3,-7.285979E-4,5.88711E-3,1.114204E-2,2.4426945E-2,-4.5610922E-3],"split_indices":[5,5,0,2,2,2,1,0,5,2,5,1,6,0,5,5,1,5,2,5,1,2,5,5,5,5,2,1,5,1,5,0,5,5,5,1,2,6,6,2,5,1,2,5,1,0,0,0,0,2,3,0,0,0,2,1,0,0,0,0,0,0,0,0,0,0,0,0,0,0,0,0,0,0,0,0,0,0,0,0,0,0,0,0,0,0,0,0,0,0,0,0,0,0,0,0,0,0,0,0,0,0,0],"split_type":[0,0,0,0,0,0,0,0,0,0,0,0,0,0,0,0,0,0,0,0,0,0,0,0,0,0,0,0,0,0,0,0,0,0,0,0,0,0,0,0,0,0,0,0,0,0,0,0,0,0,0,0,0,0,0,0,0,0,0,0,0,0,0,0,0,0,0,0,0,0,0,0,0,0,0,0,0,0,0,0,0,0,0,0,0,0,0,0,0,0,0,0,0,0,0,0,0,0,0,0,0,0,0],"sum_hessian":[9.6115E4,8.259188E4,1.3523121E4,2.290548E4,5.9686402E4,1.2643034E4,8.800868E2,4.7967275E3,1.8108752E4,1.1227132E4,4.845927E4,5.710858E2,1.2071948E4,5.6207605E2,3.1801077E2,2.292018E3,2.5047095E3,1.01009296E3,1.709866E4,2.3323884E3,8.894744E3,2.7409309E4,2.104996E4,5.637445E2,7.3412766E0,1.0385721E4,1.6862281E3,1.0211049E2,2.1590027E2,5.657467E2,1.7262715E3,2.3678948E3,1.368147E2,1.8219714E2,8.278958E2,5.720535E3,1.1378125E4,1.7559636E3,5.764249E2,6.781791E3,2.112953E3,1.5846904E4,1.1562403E4,2.0432824E4,6.171356E2,5.624097E2,1.3347776E0,2.6695552E0,4.6717215E0,1.0076386E4,3.0933472E2,1.1241521E3,5.6207605E2,5.7395435E1,4.471505E1,2.0155142E2,1.4348859E1,5.6207605E2,3.6706383E0,1.1478444E3,5.7842706E2,1.6862281E3,6.816667E2,1.7685802E1,1.191289E2,9.8106155E1,8.409099E1,3.343618E2,4.9353403E2,5.6271006E3,9.343443E1,6.338204E2,1.0744305E4,1.1938876E3,5.6207605E2,1.4348859E1,5.6207605E2,5.538048E3,1.2437427E3,1.5533474E3,5.596055E2,1.2124543E4,3.722361E3,8.669075E3,2.8933289E3,1.6165541E4,4.267284E3,5.637445E2,5.3391106E1,1.0010831E0,1.668472E0,2.242952E3,7.8334336E3,1.5216464E2,1.5717006E2,3.4036827E1,2.3358608E1,4.2045494E1,2.6695552E0,1.36481E2,6.5070404E1,1.26803875E1,1.668472E0],"tree_param":{"num_deleted":"0","num_feature":"8","num_nodes":"103","size_leaf_vector":"1"}},{"base_weights":[-0E0,-3.5017826E-2,2.1385886E-1,-1.1170244E-1,-5.585993E-3,2.4489458E-1,-2.3164845E-1,-2.3598196E-1,-7.876599E-2,6.58576E-2,-2.2141255E-2,-2.5344956E-1,2.68497E-1,-2.1602957E-2,1.2250296E-1,-1.2441818E-1,-3.3794183E-1,-2.6699096E-1,-6.76259E-2,-7.22931E-2,1.02098905E-1,-5.087138E-2,1.4771117E-2,-2.6240033E-1,3.709563E-1,2.2679347E-1,5.2500904E-1,3.2585587E-2,1.6422223E-1,-1.826932E-2,-1.5911746E-1,-3.5325402E-1,-7.156303E-2,-4.406583E-1,-2.2816539E-1,-1.2722693E-1,-3.7643187E-2,4.5327812E-2,-4.3023294E-1,1.3723148E-1,-1.0627823E-2,-7.760009E-2,-1.4456798E-2,1.9673597E-2,-1.4840764E-1,-1.3159551E-2,-0E0,1.0745271E-1,2.2920249E-2,2.0778179E-1,8.430995E-1,2.2346143E-2,3.3996638E-2,-0E0,7.559189E-2,1.4555317E-1,3.933742E-1,-7.2540593E-4,-2.231924E-2,-1.0715111E-2,-2.4816701E-3,-1.8759E-2,-1.4919974E-2,-7.267737E-3,-2.2336512E-3,-2.5344336E-2,-1.7858384E-2,-1.3622992E-2,-9.873206E-3,-6.414432E-3,-3.0772784E-3,1.0648886E-2,-2.6227694E-3,3.8182252E-4,6.252674E-3,-0E0,-2.2062425E-2,6.412111E-3,1.0861136E-2,-1.0904236E-3,1.0106234E-3,-4.670445E-3,-1.2076622E-3,2.4992865E-4,-3.6633715E-3,3.285579E-4,3.7622445E-3,-8.749259E-3,6.4218813E-3,-0E0,9.143683E-3,1.3691844E-2,9.441145E-3,3.249636E-2,5.1209807E-2,1.5375157E-3,-2.4081108E-3,4.1900026E-3,-7.0209574E-4,5.7562846E-3,1.0968285E-2,2.3294874E-2,-4.4185002E-3],"categories":[],"categories_nodes":[],"categories_segments":[],"categories_sizes":[],"default_left":[0,0,0,0,0,0,0,0,0,0,0,0,0,0,0,0,0,0,0,0,0,0,0,0,0,0,0,0,0,0,0,0,0,0,0,0,0,0,0,0,0,0,0,0,0,0,0,0,0,0,0,0,0,0,0,0,0,0,0,0,0,0,0,0,0,0,0,0,0,0,0,0,0,0,0,0,0,0,0,0,0,0,0,0,0,0,0,0,0,0,0,0,0,0,0,0,0,0,0,0,0,0,0],"id":1,"left_children":[1,3,5,7,9,11,13,15,17,19,21,23,25,-1,27,29,31,33,35,37,39,41,43,45,47,49,51,53,55,57,59,61,63,65,67,69,71,73,75,77,79,81,83,85,87,-1,-1,89,-1,91,93,-1,-1,95,97,99,101,-1,-1,-1,-1,-1,-1,-1,-1,-1,-1,-1,-1,-1,-1,-1,-1,-1,-1,-1,-1,-1,-1,-1,-1,-1,-1,-1,-1,-1,-1,-1,-1,-1,-1,-1,-1,-1,-1,-1,-1,-1,-1,-1,-1,-1,-1],"loss_changes":[7.198133E2,1.8639725E2,1.8705121E2,9.371362E1,7.059341E1,1.4879028E2,6.261966E1,5.4486023E1,3.792177E1,5.622694E1,5.1396336E1,3.2838173E0,1.2895557E2,0E0,1.171669E0,8.425205E0,1.0152649E1,6.6501083E0,3.0535835E1,9.829648E1,3.5244644E1,2.651458E1,1.6956936E1,1.4224243E-1,8.636582E-2,1.2142102E2,1.9994507E1,1.5173708E-1,8.1676054E-1,8.600259E-1,1.0398888E1,2.6698303E0,2.4796379E-1,7.45533E-1,1.0264168E0,3.7210846E-1,4.2237236E1,5.2653966E0,2.7494507E0,4.814842E0,7.2952175E-1,1.3263596E1,1.3209586E1,1.4984756E1,4.575286E0,0E0,0E0,4.687211E-2,0E0,1.2522247E1,1.0023346E1,0E0,0E0,8.9632384E-2,4.1786402E-2,3.9621258E-1,6.151774E-1,0E0,0E0,0E0,0E0,0E0,0E0,0E0,0E0,0E0,0E0,0E0,0E0,0E0,0E0,0E0,0E0,0E0,0E0,0E0,0E0,0E0,0E0,0E0,0E0,0E0,0E0,0E0,0E0,0E0,0E0,0E0,0E0,0E0,0E0,0E0,0E0,0E0,0E0,0E0,0E0,0E0,0E0,0E0,0E0,0E0,0E0],"parents":[2147483647,0,0,1,1,2,2,3,3,4,4,5,5,6,6,7,7,8,8,9,9,10,10,11,11,12,12,14,14,15,15,16,16,17,17,18,18,19,19,20,20,21,21,22,22,23,23,24,24,25,25,26,26,27,27,28,28,29,29,30,30,31,31,32,32,33,33,34,34,35,35,36,36,37,37,38,38,39,39,40,40,41,41,42,42,43,43,44,44,47,47,49,49,50,50,53,53,54,54,55,55,56,56],"right_children":[2,4,6,8,10,12,14,16,18,20,22,24,26,-1,28,30,32,34,36,38,40,42,44,46,48,50,52,54,56,58,60,62,64,66,68,70,72,74,76,78,80,82,84,86,88,-1,-1,90,-1,92,94,-1,-1,96,98,100,102,-1,-1,-1,-1,-1,-1,-1,-1,-1,-1,-1,-1,-1,-1,-1,-1,-1,-1,-1,-1,-1,-1,-1,-1,-1,-1,-1,-1,-1,-1,-1,-1,-1,-1,-1,-1,-1,-1,-1,-1,-1,-1,-1,-1,-1,-1],"split_conditions":[8.580083E-1,-3.2828736E-1,-7.4986704E-3,-1.3652754E-1,-1.3646734E-1,-1.3654342E-1,-2.647417E-2,-7.5409086E-3,-1.3045248E0,-1.365375E-1,-1.8114999E-1,-2.6471809E-2,1E0,-2.1602957E-2,9.7559327E-1,-2.4672828E0,-2.647417E-2,-2.4672828E0,-1.3651061E-1,4.5852196E-1,-2.647417E-2,-1.2845623E-1,8.3667505E-1,1.1149403E0,1.4001772E0,3.1037962E0,-1.3620353E-1,-2.6342798E-2,3.1037962E0,-2.647417E-2,-5.985588E-1,-7.5361733E-3,-5.815843E-1,-3.002113E0,-1.7327194E0,-2.6473634E-2,-1.3649547E-1,1E0,1E0,-7.5866664E-3,-3.172032E-2,-2.647417E-2,-1.2356038E-1,2.4081442E-1,-2.6465962E-2,-1.3159551E-2,-0E0,-7.5663435E-3,2.2920249E-2,-1.2641992E-1,2.045004E-3,2.2346143E-2,3.3996638E-2,-7.3973914E-3,2.6997662E-1,-2.444228E-2,-7.273359E-3,-7.2540593E-4,-2.231924E-2,-1.0715111E-2,-2.4816701E-3,-1.8759E-2,-1.4919974E-2,-7.267737E-3,-2.2336512E-3,-2.5344336E-2,-1.7858384E-2,-1.3622992E-2,-9.873206E-3,-6.414432E-3,-3.0772784E-3,1.0648886E-2,-2.6227694E-3,3.8182252E-4,6.252674E-3,-0E0,-2.2062425E-2,6.412111E-3,1.0861136E-2,-1.0904236E-3,1.0106234E-3,-4.670445E-3,-1.2076622E-3,2.4992865E-4,-3.6633715E-3,3.285579E-4,3.7622445E-3,-8.749259E-3,6.4218813E-3,-0E0,9.143683E-3,1.3691844E-2,9.441145E-3,3.249636E-2,5.1209807E-2,1.5375157E-3,-2.4081108E-3,4.1900026E-3,-7.0209574E-4,5.7562846E-3,1.0968285E-2,2.3294874E-2,-4.4185002E-3],"split_indices":[5,5,0,2,2,2,1,0,5,2,5,1,6,0,5,5,1,5,2,5,1,2,5,5,5,5,2,1,5,1,5,0,5,5,5,1,2,6,6,0,5,1,2,5,1,0,0,0,0,2,3,0,0,0,2,1,0,0,0,0,0,0,0,0,0,0,0,0,0,0,0,0,0,0,0,0,0,0,0,0,0,0,0,0,0,0,0,0,0,0,0,0,0,0,0,0,0,0,0,0,0,0,0],"split_type":[0,0,0,0,0,0,0,0,0,0,0,0,0,0,0,0,0,0,0,0,0,0,0,0,0,0,0,0,0,0,0,0,0,0,0,0,0,0,0,0,0,0,0,0,0,0,0,0,0,0,0,0,0,0,0,0,0,0,0,0,0,0,0,0,0,0,0,0,0,0,0,0,0,0,0,0,0,0,0,0,0,0,0,0,0,0,0,0,0,0,0,0,0,0,0,0,0,0,0,0,0,0,0],"sum_hessian":[9.6115E4,8.259188E4,1.3523121E4,2.290548E4,5.9686402E4,1.2643034E4,8.800868E2,4.7967275E3,1.8108752E4,1.1227132E4,4.845927E4,5.710858E2,1.2071948E4,5.6207605E2,3.1801077E2,2.292018E3,2.5047095E3,1.01009296E3,1.709866E4,2.3323884E3,8.894744E3,2.7251137E4,2.120813E4,5.637445E2,7.3412766E0,1.0385721E4,1.6862281E3,1.0211049E2,2.1590027E2,5.657467E2,1.7262715E3,2.3678948E3,1.368147E2,1.8219714E2,8.278958E2,5.720535E3,1.1378125E4,1.7559636E3,5.764249E2,6.781791E3,2.112953E3,1.5713427E4,1.153771E4,2.0590996E4,6.171356E2,5.624097E2,1.3347776E0,2.6695552E0,4.6717215E0,1.0076386E4,3.0933472E2,1.1241521E3,5.6207605E2,5.7395435E1,4.471505E1,2.0155142E2,1.4348859E1,5.6207605E2,3.6706383E0,1.1465096E3,5.7976184E2,1.6862281E3,6.816667E2,3.437052E1,1.0244418E2,9.8106155E1,8.409099E1,3.343618E2,4.9353403E2,5.6271006E3,9.343443E1,6.338204E2,1.0744305E4,1.1938876E3,5.6207605E2,1.4348859E1,5.6207605E2,6.100124E3,6.816667E2,1.5533474E3,5.596055E2,1.2124543E4,3.5888833E3,8.669075E3,2.8686355E3,1.6664748E4,3.9262483E3,5.637445E2,5.3391106E1,1.0010831E0,1.668472E0,2.242952E3,7.8334336E3,1.5216464E2,1.5717006E2,3.4036827E1,2.3358608E1,4.2045494E1,2.6695552E0,1.4549075E2,5.6060658E1,1.26803875E1,1.668472E0],"tree_param":{"num_deleted":"0","num_feature":"8","num_nodes":"103","size_leaf_vector":"1"}},{"base_weights":[-0E0,-3.326938E-2,2.0318319E-1,-1.061266E-1,-5.306431E-3,2.3266663E-1,-2.2003582E-1,-2.2420672E-1,-7.4832834E-2,6.256589E-2,-2.1034246E-2,-2.4072643E-1,2.5508773E-1,-2.0524729E-2,1.1651329E-1,-1.18219614E-1,-3.2106796E-1,-2.5372222E-1,-6.4244986E-2,-6.868015E-2,9.699646E-2,-4.8152383E-2,1.4272341E-2,-2.4929518E-1,3.5629028E-1,2.1546552E-1,4.9879494E-1,3.0933201E-2,1.5619831E-1,-1.7405335E-2,-1.5117213E-1,-3.3560765E-1,-6.8090096E-2,-4.1888854E-1,-2.167915E-1,-1.20543264E-1,-3.5531826E-2,4.3068048E-2,-4.0875697E-1,1.3037318E-1,-1.0094103E-2,-7.324457E-2,-1.3750159E-2,1.8973103E-2,-1.4098294E-1,-1.2502742E-2,-0E0,1.0329526E-1,2.1976292E-2,1.9739549E-1,8.012303E-1,2.1229828E-2,3.2299828E-2,-0E0,7.177922E-2,1.3838278E-1,3.7460956E-1,-6.892E-4,-2.144221E-2,-1.0179823E-2,-2.3578003E-3,-1.7821606E-2,-1.41750695E-2,-8.722489E-3,-2.507341E-3,-2.4089906E-2,-1.697596E-2,-1.2943873E-2,-9.380544E-3,-6.0863006E-3,-2.845536E-3,1.1409922E-2,-2.4916432E-3,3.6274732E-4,5.940596E-3,-0E0,-2.096126E-2,5.37286E-3,8.020605E-3,-1.0359373E-3,9.6018234E-4,-4.436942E-3,-1.1369619E-3,2.3743359E-4,-3.4596964E-3,2.5567994E-4,3.3226088E-3,-8.312571E-3,6.106691E-3,-0E0,8.857827E-3,1.3007558E-2,8.969148E-3,3.0882148E-2,4.8665505E-2,1.462834E-3,-2.2926482E-3,3.928232E-3,-1.4823645E-3,5.309175E-3,1.0088793E-2,-5.159744E-4,2.3217747E-2],"categories":[],"categories_nodes":[],"categories_segments":[],"categories_sizes":[],"default_left":[0,0,0,0,0,0,0,0,0,0,0,0,0,0,0,0,0,0,0,0,0,0,0,0,0,0,0,0,0,0,0,0,0,0,0,0,0,0,0,0,0,0,0,0,0,0,0,0,0,0,0,0,0,0,0,0,0,0,0,0,0,0,0,0,0,0,0,0,0,0,0,0,0,0,0,0,0,0,0,0,0,0,0,0,0,0,0,0,0,0,0,0,0,0,0,0,0,0,0,0,0,0,0],"id":2,"left_children":[1,3,5,7,9,11,13,15,17,19,21,23,25,-1,27,29,31,33,35,37,39,41,43,45,47,49,51,53,55,57,59,61,63,65,67,69,71,73,75,77,79,81,83,85,87,-1,-1,89,-1,91,93,-1,-1,95,97,99,101,-1,-1,-1,-1,-1,-1,-1,-1,-1,-1,-1,-1,-1,-1,-1,-1,-1,-1,-1,-1,-1,-1,-1,-1,-1,-1,-1,-1,-1,-1,-1,-1,-1,-1,-1,-1,-1,-1,-1,-1,-1,-1,-1,-1,-1,-1],"loss_changes":[6.497399E2,1.68255E2,1.6880579E2,8.459668E1,6.3712475E1,1.3426654E2,5.655376E1,4.9171783E1,3.425273E1,5.0748005E1,4.6402306E1,3.0047379E0,1.1640015E2,0E0,1.0598946E0,7.59811E0,9.153351E0,6.012993E0,2.7621735E1,8.872987E1,3.18097E1,2.3651615E1,1.53538475E1,1.3076782E-1,7.59691E-2,1.09683136E2,1.8046722E1,1.3687305E-1,7.408447E-1,7.942548E-1,9.38409E0,2.4053955E0,2.3180342E-1,6.6901016E-1,9.2473984E-1,4.0976715E-1,4.2713623E1,4.7525115E0,2.4830322E0,4.6250534E0,6.585767E-1,1.2388504E1,1.1866719E1,1.3438704E1,4.134426E0,0E0,0E0,4.459466E-2,0E0,1.1300751E1,9.043762E0,0E0,0E0,8.1203714E-2,3.8683027E-2,3.6122918E-1,5.80431E-1,0E0,0E0,0E0,0E0,0E0,0E0,0E0,0E0,0E0,0E0,0E0,0E0,0E0,0E0,0E0,0E0,0E0,0E0,0E0,0E0,0E0,0E0,0E0,0E0,0E0,0E0,0E0,0E0,0E0,0E0,0E0,0E0,0E0,0E0,0E0,0E0,0E0,0E0,0E0,0E0,0E0,0E0,0E0,0E0,0E0,0E0],"parents":[2147483647,0,0,1,1,2,2,3,3,4,4,5,5,6,6,7,7,8,8,9,9,10,10,11,11,12,12,14,14,15,15,16,16,17,17,18,18,19,19,20,20,21,21,22,22,23,23,24,24,25,25,26,26,27,27,28,28,29,29,30,30,31,31,32,32,33,33,34,34,35,35,36,36,37,37,38,38,39,39,40,40,41,41,42,42,43,43,44,44,47,47,49,49,50,50,53,53,54,54,55,55,56,56],"right_children":[2,4,6,8,10,12,14,16,18,20,22,24,26,-1,28,30,32,34,36,38,40,42,44,46,48,50,52,54,56,58,60,62,64,66,68,70,72,74,76,78,80,82,84,86,88,-1,-1,90,-1,92,94,-1,-1,96,98,100,102,-1,-1,-1,-1,-1,-1,-1,-1,-1,-1,-1,-1,-1,-1,-1,-1,-1,-1,-1,-1,-1,-1,-1,-1,-1,-1,-1,-1,-1,-1,-1,-1,-1,-1,-1,-1,-1,-1,-1,-1,-1,-1,-1,-1,-1,-1],"split_conditions":[8.580083E-1,-3.2828736E-1,-7.4986704E-3,-1.3652754E-1,-1.3646734E-1,-1.3654342E-1,-2.647417E-2,-7.5409086E-3,-1.3045248E0,-1.365375E-1,-1.786348E-1,-2.6471809E-2,1E0,-2.0524729E-2,9.7559327E-1,-2.4672828E0,-2.647417E-2,-2.4672828E0,-1.3650045E-1,4.5852196E-1,-2.647417E-2,-1.2845623E-1,8.3667505E-1,1.1149403E0,1.4001772E0,3.1037962E0,-1.3620353E-1,-2.6342798E-2,3.1037962E0,-2.647417E-2,-5.985588E-1,-7.5361733E-3,-8.257671E-1,-3.002113E0,-1.7327194E0,-5.750538E-1,-1.3649547E-1,1E0,1E0,-1.3649087E-1,-3.172032E-2,-2.647417E-2,-1.2356038E-1,1.8310483E-1,-2.6465962E-2,-1.2502742E-2,-0E0,-7.5663435E-3,2.1976292E-2,-1.2641992E-1,2.045004E-3,2.1229828E-2,3.2299828E-2,-7.3973914E-3,4.3484512E-1,-2.5066309E-2,-1.3647759E-1,-6.892E-4,-2.144221E-2,-1.0179823E-2,-2.3578003E-3,-1.7821606E-2,-1.41750695E-2,-8.722489E-3,-2.507341E-3,-2.4089906E-2,-1.697596E-2,-1.2943873E-2,-9.380544E-3,-6.0863006E-3,-2.845536E-3,1.1409922E-2,-2.4916432E-3,3.6274732E-4,5.940596E-3,-0E0,-2.096126E-2,5.37286E-3,8.020605E-3,-1.0359373E-3,9.6018234E-4,-4.436942E-3,-1.1369619E-3,2.3743359E-4,-3.4596964E-3,2.5567994E-4,3.3226088E-3,-8.312571E-3,6.106691E-3,-0E0,8.857827E-3,1.3007558E-2,8.969148E-3,3.0882148E-2,4.8665505E-2,1.462834E-3,-2.2926482E-3,3.928232E-3,-1.4823645E-3,5.309175E-3,1.0088793E-2,-5.159744E-4,2.3217747E-2],"split_indices":[5,5,0,2,2,2,1,0,5,2,5,1,6,0,5,5,1,5,2,5,1,2,5,5,5,5,2,1,5,1,5,0,5,5,5,5,2,6,6,2,5,1,2,5,1,0,0,0,0,2,3,0,0,0,2,1,2,0,0,0,0,0,0,0,0,0,0,0,0,0,0,0,0,0,0,0,0,0,0,0,0,0,0,0,0,0,0,0,0,0,0,0,0,0,0,0,0,0,0,0,0,0,0],"split_type":[0,0,0,0,0,0,0,0,0,0,0,0,0,0,0,0,0,0,0,0,0,0,0,0,0,0,0,0,0,0,0,0,0,0,0,0,0,0,0,0,0,0,0,0,0,0,0,0,0,0,0,0,0,0,0,0,0,0,0,0,0,0,0,0,0,0,0,0,0,0,0,0,0,0,0,0,0,0,0,0,0,0,0,0,0,0,0,0,0,0,0,0,0,0,0,0,0,0,0,0,0,0,0],"sum_hessian":[9.6115E4,8.259188E4,1.3523121E4,2.290548E4,5.9686402E4,1.2643034E4,8.800868E2,4.7967275E3,1.8108752E4,1.1227132E4,4.845927E4,5.710858E2,1.2071948E4,5.6207605E2,3.1801077E2,2.292018E3,2.5047095E3,1.01009296E3,1.709866E4,2.3323884E3,8.894744E3,2.7409309E4,2.104996E4,5.637445E2,7.3412766E0,1.0385721E4,1.6862281E3,1.0211049E2,2.1590027E2,5.657467E2,1.7262715E3,2.3678948E3,1.368147E2,1.8219714E2,8.278958E2,5.7729253E3,1.1325734E4,1.7559636E3,5.764249E2,6.781791E3,2.112953E3,1.5846904E4,1.1562403E4,2.0432824E4,6.171356E2,5.624097E2,1.3347776E0,2.6695552E0,4.6717215E0,1.0076386E4,3.0933472E2,1.1241521E3,5.6207605E2,5.7395435E1,4.471505E1,2.0155142E2,1.4348859E1,5.6207605E2,3.6706383E0,1.1465096E3,5.7976184E2,1.6862281E3,6.816667E2,1.7685802E1,1.191289E2,9.8106155E1,8.409099E1,3.343618E2,4.9353403E2,5.665142E3,1.0778329E2,5.814303E2,1.0744305E4,1.1938876E3,5.6207605E2,1.4348859E1,5.6207605E2,3.8514863E3,2.9303047E3,1.5533474E3,5.596055E2,1.2124543E4,3.722361E3,8.669075E3,2.8933289E3,1.5818498E4,4.614326E3,5.637445E2,5.3391106E1,1.0010831E0,1.668472E0,2.242952E3,7.8334336E3,1.5216464E2,1.5717006E2,3.4036827E1,2.3358608E1,4.3046577E1,1.668472E0,1.36481E2,6.5070404E1,2.6695552E0,1.1679304E1],"tree_param":{"num_deleted":"0","num_feature":"8","num_nodes":"103","size_leaf_vector":"1"}},{"base_weights":[-0E0,-3.1608317E-2,1.9304086E-1,-1.0082927E-1,-5.0408975E-3,2.2104938E-1,-2.0900089E-1,-2.1301991E-1,-7.109607E-2,5.94385E-2,-1.9982584E-2,-2.2864044E-1,2.4234825E-1,-1.9500313E-2,1.10827796E-1,-1.12330295E-1,-3.050378E-1,-2.4111363E-1,-6.1033025E-2,-6.524751E-2,9.214869E-2,-4.4327468E-2,1.5590997E-2,-2.3684412E-1,3.422102E-1,2.0470345E-1,4.738899E-1,2.9353723E-2,1.485871E-1,-1.6582942E-2,-1.4362368E-1,-3.188429E-1,-6.480336E-2,-3.9819556E-1,-2.0598489E-1,-1.14518516E-1,-3.3754006E-2,4.0921077E-2,-3.883529E-1,1.2385724E-1,-9.587069E-3,-2.933695E-2,-9.325559E-2,1.4245814E-1,9.6195955E-3,-1.1878714E-2,-0E0,9.926779E-2,2.1071216E-2,1.8752839E-1,7.6144123E-1,2.016928E-2,3.0687705E-2,-0E0,6.813439E-2,1.3156433E-1,3.570324E-1,-6.548012E-4,-2.059964E-2,-9.6671805E-3,-2.2311134E-3,-1.6931053E-2,-1.3467352E-2,-1.1722806E-2,-2.68096E-3,-2.2897564E-2,-1.6137136E-2,-1.2298609E-2,-8.912466E-3,-5.7820394E-3,-2.704567E-3,1.0840404E-2,-2.3670725E-3,3.4462518E-4,5.6440937E-3,-0E0,-1.991506E-2,5.774166E-3,9.918432E-3,-1.1653577E-3,5.573564E-4,-2.143695E-3,2.1179002E-3,7.8928034E-4,-5.159277E-3,9.381403E-3,-1.0132059E-3,7.251584E-4,-6.6964636E-3,-0E0,8.580907E-3,1.2357469E-2,8.520748E-3,3.7234526E-2,1.4601724E-1,1.39178E-3,-2.1827219E-3,3.7935206E-3,-6.9643994E-4,5.1920903E-3,9.933882E-3,2.1283971E-2,-4.561027E-3],"categories":[],"categories_nodes":[],"categories_segments":[],"categories_sizes":[],"default_left":[0,0,0,0,0,0,0,0,0,0,0,0,0,0,0,0,0,0,0,0,0,0,0,0,0,0,0,0,0,0,0,0,0,0,0,0,0,0,0,0,0,0,0,0,0,0,0,0,0,0,0,0,0,0,0,0,0,0,0,0,0,0,0,0,0,0,0,0,0,0,0,0,0,0,0,0,0,0,0,0,0,0,0,0,0,0,0,0,0,0,0,0,0,0,0,0,0,0,0,0,0,0,0],"id":3,"left_children":[1,3,5,7,9,11,13,15,17,19,21,23,25,-1,27,29,31,33,35,37,39,41,43,45,47,49,51,53,55,57,59,61,63,65,67,69,71,73,75,77,79,81,83,85,87,-1,-1,89,-1,91,93,-1,-1,95,97,99,101,-1,-1,-1,-1,-1,-1,-1,-1,-1,-1,-1,-1,-1,-1,-1,-1,-1,-1,-1,-1,-1,-1,-1,-1,-1,-1,-1,-1,-1,-1,-1,-1,-1,-1,-1,-1,-1,-1,-1,-1,-1,-1,-1,-1,-1,-1],"loss_changes":[5.8649066E2,1.5187906E2,1.5233698E2,7.636757E1,5.7501934E1,1.2115991E2,5.1077873E1,4.437613E1,3.0938942E1,4.5802673E1,4.1971832E1,2.7496338E0,1.0506702E2,0E0,9.592509E-1,6.85207E0,8.251038E0,5.436863E0,2.4930252E1,8.009435E1,2.8709335E1,2.1088634E1,1.4898922E1,1.20290756E-1,6.662035E-2,9.908023E1,1.6288483E1,1.2337849E-1,6.737976E-1,7.335041E-1,8.469803E0,2.1669922E0,2.2011393E-1,6.001167E-1,8.3303833E-1,3.683319E-1,3.855516E1,4.289562E0,2.242485E0,4.177841E0,6.0284233E-1,2.1380596E1,7.3146744E0,6.5196724E0,1.3173079E1,0E0,0E0,4.24338E-2,0E0,1.0198273E1,8.681519E0,0E0,0E0,7.356769E-2,3.6272824E-2,3.2597423E-1,5.4457974E-1,0E0,0E0,0E0,0E0,0E0,0E0,0E0,0E0,0E0,0E0,0E0,0E0,0E0,0E0,0E0,0E0,0E0,0E0,0E0,0E0,0E0,0E0,0E0,0E0,0E0,0E0,0E0,0E0,0E0,0E0,0E0,0E0,0E0,0E0,0E0,0E0,0E0,0E0,0E0,0E0,0E0,0E0,0E0,0E0,0E0,0E0],"parents":[2147483647,0,0,1,1,2,2,3,3,4,4,5,5,6,6,7,7,8,8,9,9,10,10,11,11,12,12,14,14,15,15,16,16,17,17,18,18,19,19,20,20,21,21,22,22,23,23,24,24,25,25,26,26,27,27,28,28,29,29,30,30,31,31,32,32,33,33,34,34,35,35,36,36,37,37,38,38,39,39,40,40,41,41,42,42,43,43,44,44,47,47,49,49,50,50,53,53,54,54,55,55,56,56],"right_children":[2,4,6,8,10,12,14,16,18,20,22,24,26,-1,28,30,32,34,36,38,40,42,44,46,48,50,52,54,56,58,60,62,64,66,68,70,72,74,76,78,80,82,84,86,88,-1,-1,90,-1,92,94,-1,-1,96,98,100,102,-1,-1,-1,-1,-1,-1,-1,-1,-1,-1,-1,-1,-1,-1,-1,-1,-1,-1,-1,-1,-1,-1,-1,-1,-1,-1,-1,-1,-1,-1,-1,-1,-1,-1,-1,-1,-1,-1,-1,-1,-1,-1,-1,-1,-1,-1],"split_conditions":[8.580083E-1,-3.2828736E-1,-7.4986704E-3,-1.3652754E-1,-1.3646734E-1,-1.3654342E-1,-2.647417E-2,-7.5409086E-3,-1.3045248E0,-1.365375E-1,-1.6765812E-1,-2.6471809E-2,1E0,-1.9500313E-2,9.7559327E-1,-2.4672828E0,-2.647417E-2,-2.4672828E0,-1.3650045E-1,4.5852196E-1,-2.647417E-2,1E0,-1.616481E-1,1.1149403E0,1.4001772E0,3.1037962E0,-1.3620353E-1,-2.6342798E-2,3.1037962E0,-2.647417E-2,-5.815843E-1,-7.5361733E-3,-1.3045248E0,-3.002113E0,-1.7327194E0,-5.750538E-1,-1.3649547E-1,1E0,1E0,-7.5866664E-3,-1.2325365E-1,-1.2641992E-1,-3.1841806E-1,-7.58235E-3,8.3667505E-1,-1.1878714E-2,-0E0,-7.5663435E-3,2.1071216E-2,-1.2641992E-1,4.1888916E1,2.016928E-2,3.0687705E-2,-7.3973914E-3,2.6997662E-1,-2.444228E-2,-7.273359E-3,-6.548012E-4,-2.059964E-2,-9.6671805E-3,-2.2311134E-3,-1.6931053E-2,-1.3467352E-2,-1.1722806E-2,-2.68096E-3,-2.2897564E-2,-1.6137136E-2,-1.2298609E-2,-8.912466E-3,-5.7820394E-3,-2.704567E-3,1.0840404E-2,-2.3670725E-3,3.4462518E-4,5.6440937E-3,-0E0,-1.991506E-2,5.774166E-3,9.918432E-3,-1.1653577E-3,5.573564E-4,-2.143695E-3,2.1179002E-3,7.8928034E-4,-5.159277E-3,9.381403E-3,-1.0132059E-3,7.251584E-4,-6.6964636E-3,-0E0,8.580907E-3,1.2357469E-2,8.520748E-3,3.7234526E-2,1.4601724E-1,1.39178E-3,-2.1827219E-3,3.7935206E-3,-6.9643994E-4,5.1920903E-3,9.933882E-3,2.1283971E-2,-4.561027E-3],"split_indices":[5,5,0,2,2,2,1,0,5,2,5,1,6,0,5,5,1,5,2,5,1,6,5,5,5,5,2,1,5,1,5,0,5,5,5,5,2,6,6,0,5,2,5,0,5,0,0,0,0,2,5,0,0,0,2,1,0,0,0,0,0,0,0,0,0,0,0,0,0,0,0,0,0,0,0,0,0,0,0,0,0,0,0,0,0,0,0,0,0,0,0,0,0,0,0,0,0,0,0,0,0,0,0],"split_type":[0,0,0,0,0,0,0,0,0,0,0,0,0,0,0,0,0,0,0,0,0,0,0,0,0,0,0,0,0,0,0,0,0,0,0,0,0,0,0,0,0,0,0,0,0,0,0,0,0,0,0,0,0,0,0,0,0,0,0,0,0,0,0,0,0,0,0,0,0,0,0,0,0,0,0,0,0,0,0,0,0,0,0,0,0,0,0,0,0,0,0,0,0,0,0,0,0,0,0,0,0,0,0],"sum_hessian":[9.6115E4,8.259188E4,1.3523121E4,2.290548E4,5.9686402E4,1.2643034E4,8.800868E2,4.7967275E3,1.8108752E4,1.1227132E4,4.845927E4,5.710858E2,1.2071948E4,5.6207605E2,3.1801077E2,2.292018E3,2.5047095E3,1.01009296E3,1.709866E4,2.3323884E3,8.894744E3,2.8771783E4,1.9687486E4,5.637445E2,7.3412766E0,1.0385721E4,1.6862281E3,1.0211049E2,2.1590027E2,5.657467E2,1.7262715E3,2.3678948E3,1.368147E2,1.8219714E2,8.278958E2,5.7729253E3,1.1325734E4,1.7559636E3,5.764249E2,6.781791E3,2.112953E3,2.202687E4,6.7449126E3,8.832181E2,1.8804268E4,5.624097E2,1.3347776E0,2.6695552E0,4.6717215E0,1.0076386E4,3.0933472E2,1.1241521E3,5.6207605E2,5.7395435E1,4.471505E1,2.0155142E2,1.4348859E1,5.6207605E2,3.6706383E0,1.1478444E3,5.7842706E2,1.6862281E3,6.816667E2,6.673888E0,1.3014081E2,9.8106155E1,8.409099E1,3.343618E2,4.9353403E2,5.665142E3,1.0778329E2,5.814303E2,1.0744305E4,1.1938876E3,5.6207605E2,1.4348859E1,5.6207605E2,6.100124E3,6.816667E2,1.2743789E3,8.3857404E2,1.8529965E4,3.4969043E3,5.6207605E2,6.1828364E3,6.916775E2,1.9154059E2,1.8187133E4,6.171356E2,1.0010831E0,1.668472E0,2.242952E3,7.8334336E3,3.0833362E2,1.0010831E0,3.4036827E1,2.3358608E1,4.2045494E1,2.6695552E0,1.4549075E2,5.6060658E1,1.26803875E1,1.668472E0],"tree_param":{"num_deleted":"0","num_feature":"8","num_nodes":"103","size_leaf_vector":"1"}},{"base_weights":[1.214488E-6,-3.003017E-2,1.8341267E-1,-9.579668E-2,-4.7885072E-3,2.1002087E-1,-1.9852288E-1,-2.0239246E-1,-6.754597E-2,5.64677E-2,-1.8983394E-2,-2.1715973E-1,2.3025402E-1,-1.852703E-2,1.05409145E-1,-1.06734775E-1,-2.8980976E-1,-2.2913237E-1,-5.798167E-2,-6.1986193E-2,8.754352E-2,-4.2111073E-2,1.4811316E-2,-2.2501451E-1,3.2869235E-1,1.9448937E-1,4.502285E-1,2.7859911E-2,1.4132763E-1,-1.5800118E-2,-1.3645227E-1,-3.029157E-1,-6.1703987E-2,-3.7852615E-1,-1.9571726E-1,-1.0879492E-1,-3.2065116E-2,3.8881276E-2,-3.6896724E-1,1.1766743E-1,-9.105637E-3,-2.7869876E-2,-8.8592716E-2,1.3533905E-1,9.138032E-3,-1.1285833E-2,-0E0,9.5366225E-2,2.020341E-2,1.7815454E-1,7.239758E-1,1.9161712E-2,2.9156044E-2,-0E0,6.4686045E-2,1.2508549E-1,3.399445E-1,-6.221193E-4,-1.9790182E-2,-9.184242E-3,-2.1197505E-3,-1.6085003E-2,-1.27949715E-2,-6.421856E-3,-1.8661412E-3,-2.176424E-2,-1.5339762E-2,-1.1685513E-2,-8.467742E-3,-5.4929885E-3,-2.5705816E-3,1.0299315E-2,-2.24873E-3,3.2740826E-4,5.36239E-3,-0E0,-1.8921075E-2,4.815654E-3,7.282914E-3,-2.6005898E-3,-1.4553046E-4,-2.036516E-3,2.0120356E-3,7.498864E-4,-4.901355E-3,8.913009E-3,-9.628087E-4,6.889024E-4,-6.362182E-3,-0E0,8.312645E-3,8.6757E-3,1.9646013E-2,3.1957123E-2,5.4119296E-2,1.3241771E-3,-2.078066E-3,3.556012E-3,-1.4142493E-3,4.7879308E-3,9.135142E-3,-9.1886177E-4,2.123617E-2],"categories":[],"categories_nodes":[],"categories_segments":[],"categories_sizes":[],"default_left":[0,0,0,0,0,0,0,0,0,0,0,0,0,0,0,0,0,0,0,0,0,0,0,0,0,0,0,0,0,0,0,0,0,0,0,0,0,0,0,0,0,0,0,0,0,0,0,0,0,0,0,0,0,0,0,0,0,0,0,0,0,0,0,0,0,0,0,0,0,0,0,0,0,0,0,0,0,0,0,0,0,0,0,0,0,0,0,0,0,0,0,0,0,0,0,0,0,0,0,0,0,0,0],"id":4,"left_children":[1,3,5,7,9,11,13,15,17,19,21,23,25,-1,27,29,31,33,35,37,39,41,43,45,47,49,51,53,55,57,59,61,63,65,67,69,71,73,75,77,79,81,83,85,87,-1,-1,89,-1,91,93,-1,-1,95,97,99,101,-1,-1,-1,-1,-1,-1,-1,-1,-1,-1,-1,-1,-1,-1,-1,-1,-1,-1,-1,-1,-1,-1,-1,-1,-1,-1,-1,-1,-1,-1,-1,-1,-1,-1,-1,-1,-1,-1,-1,-1,-1,-1,-1,-1,-1,-1],"loss_changes":[5.294374E2,1.3709833E2,1.3748328E2,6.894005E1,5.1897003E1,1.09336426E2,4.613028E1,4.004866E1,2.794593E1,4.1339314E1,3.7879566E1,2.5164394E0,9.482953E1,0E0,8.67733E-1,6.1791553E0,7.4357605E0,4.915882E0,2.2501038E1,7.229933E1,2.5911438E1,1.903215E1,1.3447067E1,1.1071968E-1,5.822146E-2,8.961636E1,1.4701324E1,1.11253E-1,6.106868E-1,6.773914E-1,7.6431236E0,1.9520416E0,2.0285922E-1,5.381069E-1,7.5032425E-1,3.310318E-1,3.480158E1,3.8716903E0,2.025299E0,4.0160294E0,5.562552E-1,1.929661E1,6.6026382E0,5.8864784E0,1.1890628E1,0E0,0E0,4.038307E-2,0E0,9.91861E0,8.571823E0,0E0,0E0,6.664974E-2,3.3641636E-2,2.9691792E-1,5.1470923E-1,0E0,0E0,0E0,0E0,0E0,0E0,0E0,0E0,0E0,0E0,0E0,0E0,0E0,0E0,0E0,0E0,0E0,0E0,0E0,0E0,0E0,0E0,0E0,0E0,0E0,0E0,0E0,0E0,0E0,0E0,0E0,0E0,0E0,0E0,0E0,0E0,0E0,0E0,0E0,0E0,0E0,0E0,0E0,0E0,0E0,0E0],"parents":[2147483647,0,0,1,1,2,2,3,3,4,4,5,5,6,6,7,7,8,8,9,9,10,10,11,11,12,12,14,14,15,15,16,16,17,17,18,18,19,19,20,20,21,21,22,22,23,23,24,24,25,25,26,26,27,27,28,28,29,29,30,30,31,31,32,32,33,33,34,34,35,35,36,36,37,37,38,38,39,39,40,40,41,41,42,42,43,43,44,44,47,47,49,49,50,50,53,53,54,54,55,55,56,56],"right_children":[2,4,6,8,10,12,14,16,18,20,22,24,26,-1,28,30,32,34,36,38,40,42,44,46,48,50,52,54,56,58,60,62,64,66,68,70,72,74,76,78,80,82,84,86,88,-1,-1,90,-1,92,94,-1,-1,96,98,100,102,-1,-1,-1,-1,-1,-1,-1,-1,-1,-1,-1,-1,-1,-1,-1,-1,-1,-1,-1,-1,-1,-1,-1,-1,-1,-1,-1,-1,-1,-1,-1,-1,-1,-1,-1,-1,-1,-1,-1,-1,-1,-1,-1,-1,-1,-1],"split_conditions":[8.580083E-1,-3.2828736E-1,-7.4986704E-3,-1.3652754E-1,-1.3646734E-1,-1.3654342E-1,-2.647417E-2,-7.5409086E-3,-1.3045248E0,-1.365375E-1,-1.6765812E-1,-2.6471809E-2,1E0,-1.852703E-2,9.7559327E-1,-2.4672828E0,-2.647417E-2,-2.4672828E0,-1.3650045E-1,4.5852196E-1,-2.647417E-2,1E0,-1.616481E-1,1.1149403E0,1.4001772E0,3.1037962E0,-1.3620353E-1,-2.6342798E-2,3.1037962E0,-2.647417E-2,-5.815843E-1,-7.5361733E-3,-5.815843E-1,-3.002113E0,-1.7327194E0,-5.750538E-1,-1.3649547E-1,1E0,1E0,-1.3649087E-1,-2.6474008E-2,-1.2641992E-1,-3.1841806E-1,-7.58235E-3,8.3667505E-1,-1.1285833E-2,-0E0,-7.5663435E-3,2.020341E-2,2.340284E0,2.080882E-1,1.9161712E-2,2.9156044E-2,-7.3973914E-3,4.3484512E-1,-2.5066309E-2,-1.3647759E-1,-6.221193E-4,-1.9790182E-2,-9.184242E-3,-2.1197505E-3,-1.6085003E-2,-1.27949715E-2,-6.421856E-3,-1.8661412E-3,-2.176424E-2,-1.5339762E-2,-1.1685513E-2,-8.467742E-3,-5.4929885E-3,-2.5705816E-3,1.0299315E-2,-2.24873E-3,3.2740826E-4,5.36239E-3,-0E0,-1.8921075E-2,4.815654E-3,7.282914E-3,-2.6005898E-3,-1.4553046E-4,-2.036516E-3,2.0120356E-3,7.498864E-4,-4.901355E-3,8.913009E-3,-9.628087E-4,6.889024E-4,-6.362182E-3,-0E0,8.312645E-3,8.6757E-3,1.9646013E-2,3.1957123E-2,5.4119296E-2,1.3241771E-3,-2.078066E-3,3.556012E-3,-1.4142493E-3,4.7879308E-3,9.135142E-3,-9.1886177E-4,2.123617E-2],"split_indices":[5,5,0,2,2,2,1,0,5,2,5,1,6,0,5,5,1,5,2,5,1,6,5,5,5,5,2,1,5,1,5,0,5,5,5,5,2,6,6,2,1,2,5,0,5,0,0,0,0,5,3,0,0,0,2,1,2,0,0,0,0,0,0,0,0,0,0,0,0,0,0,0,0,0,0,0,0,0,0,0,0,0,0,0,0,0,0,0,0,0,0,0,0,0,0,0,0,0,0,0,0,0,0],"split_type":[0,0,0,0,0,0,0,0,0,0,0,0,0,0,0,0,0,0,0,0,0,0,0,0,0,0,0,0,0,0,0,0,0,0,0,0,0,0,0,0,0,0,0,0,0,0,0,0,0,0,0,0,0,0,0,0,0,0,0,0,0,0,0,0,0,0,0,0,0,0,0,0,0,0,0,0,0,0,0,0,0,0,0,0,0,0,0,0,0,0,0,0,0,0,0,0,0,0,0,0,0,0,0],"sum_hessian":[9.6115E4,8.259188E4,1.3523121E4,2.290548E4,5.9686402E4,1.2643034E4,8.800868E2,4.7967275E3,1.8108752E4,1.1227132E4,4.845927E4,5.710858E2,1.2071948E4,5.6207605E2,3.1801077E2,2.292018E3,2.5047095E3,1.01009296E3,1.709866E4,2.3323884E3,8.894744E3,2.8771783E4,1.9687486E4,5.637445E2,7.3412766E0,1.0385721E4,1.6862281E3,1.0211049E2,2.1590027E2,5.657467E2,1.7262715E3,2.3678948E3,1.368147E2,1.8219714E2,8.278958E2,5.7729253E3,1.1325734E4,1.7559636E3,5.764249E2,6.781791E3,2.112953E3,2.202687E4,6.7449126E3,8.832181E2,1.8804268E4,5.624097E2,1.3347776E0,2.6695552E0,4.6717215E0,1.0076386E4,3.0933472E2,1.1241521E3,5.6207605E2,5.7395435E1,4.471505E1,2.0155142E2,1.4348859E1,5.6207605E2,3.6706383E0,1.1478444E3,5.7842706E2,1.6862281E3,6.816667E2,3.437052E1,1.0244418E2,9.8106155E1,8.409099E1,3.343618E2,4.9353403E2,5.665142E3,1.0778329E2,5.814303E2,1.0744305E4,1.1938876E3,5.6207605E2,1.4348859E1,5.6207605E2,3.8514863E3,2.9303047E3,2.6361856E2,1.8493344E3,1.8529965E4,3.4969043E3,5.6207605E2,6.1828364E3,6.916775E2,1.9154059E2,1.8187133E4,6.171356E2,1.0010831E0,1.668472E0,9.86549E3,2.1089487E2,2.5260666E2,5.6728046E1,3.4036827E1,2.3358608E1,4.3046577E1,1.668472E0,1.36481E2,6.5070404E1,2.6695552E0,1.1679304E1],"tree_param":{"num_deleted":"0","num_feature":"8","num_nodes":"103","size_leaf_vector":"1"}},{"base_weights":[1.5350148E-6,-3.238229E-2,1.5376784E-1,-9.10152E-2,-8.604475E-3,1.2626015E-1,4.3149048E-1,-1.922945E-1,-6.417322E-2,-5.1622214E-3,-3.1082565E-1,1.4336844E-1,-2.5322855E-1,3.8093823E-1,7.787331E-1,-1.0141841E-1,-2.753401E-1,-2.1774723E-1,-5.508288E-2,6.912047E-2,-2.0886056E-2,-1.7976701E-2,6.394151E-2,-2.0501344E-1,1.5781078E-1,-3.4768263E-1,3.7828466E-1,3.6155704E-1,5.6511045E-1,9.1506857E-1,4.2266428E-1,-1.50549505E-2,-1.2963909E-1,-2.8778422E-1,-5.8715206E-2,-3.328082E-1,-1.7831287E-1,-1.0332181E-1,-3.0438073E-2,9.582243E-2,-1.3506807E-2,-4.1449547E-2,8.96798E-3,-4.4143558E-2,7.745047E-2,1.035017E-1,-1.0725829E-2,7.107999E-2,1.8871458E-1,5.314909E-2,-3.5077944E-1,1.2590376E0,2.25734E-1,3.6700392E-1,1.2106867E-1,8.668113E-1,4.1886866E-1,8.341953E-1,2.8531218E0,2.2027887E-1,5.784113E-1,-5.910685E-4,-1.9012531E-2,-8.729526E-3,-2.0212783E-3,-1.5281229E-2,-1.2156161E-2,-1.0933797E-2,-2.407231E-3,-2.0687006E-2,-1.39680775E-2,-1.0503788E-2,-8.045211E-3,-5.2180695E-3,-2.471757E-3,9.9319285E-3,-2.1363038E-3,4.14329E-3,6.259532E-3,-1.1899493E-3,2.1851191E-4,-3.212055E-3,-5.152409E-4,1.07521344E-4,3.3210458E-3,5.7493723E-3,-5.4096687E-3,1.5356898E-2,2.9469903E-3,5.1961973E-4,1.0111901E-2,5.5105924E-3,-7.262762E-3,8.378911E-3,2.7700832E-2,-0E0,5.763188E-3,-1.7615221E-2,-1.1521233E-3,1.5854439E-2,1.0428833E-1,8.2310615E-3,3.2916732E-2,1.804858E-2,3.9966274E-2,-1.4642696E-4,1.994453E-2,5.830731E-2,1.7871719E-2,2.5537923E-2,8.2344925E-3,3.8077757E-2,7.558987E-2,1.7668645E-1,4.4781096E-2,1.6198544E-2,-2.6196209E-3,3.032563E-2,1.2746229E-3],"categories":[],"categories_nodes":[],"categories_segments":[],"categories_sizes":[],"default_left":[0,0,0,0,0,0,0,0,0,0,0,0,0,0,0,0,0,0,0,0,0,0,0,0,0,0,0,0,0,0,0,0,0,0,0,0,0,0,0,0,0,0,0,0,0,0,0,0,0,0,0,0,0,0,0,0,0,0,1,0,0,0,0,0,0,0,0,0,0,0,0,0,0,0,0,0,0,0,0,0,0,0,0,0,0,0,0,0,0,0,0,0,0,0,0,0,0,0,0,0,0,0,0,0,0,0,0,0,0,0,0,0,0,0,0,0,0,0,0],"id":5,"left_children":[1,3,5,7,9,11,13,15,17,19,21,23,25,27,29,31,33,35,37,39,41,-1,43,45,47,49,51,53,55,57,59,61,63,65,67,69,71,73,75,77,79,81,83,85,87,89,-1,91,93,95,97,99,101,103,105,107,109,111,113,115,117,-1,-1,-1,-1,-1,-1,-1,-1,-1,-1,-1,-1,-1,-1,-1,-1,-1,-1,-1,-1,-1,-1,-1,-1,-1,-1,-1,-1,-1,-1,-1,-1,-1,-1,-1,-1,-1,-1,-1,-1,-1,-1,-1,-1,-1,-1,-1,-1,-1,-1,-1,-1,-1,-1,-1,-1,-1,-1],"loss_changes":[4.7863068E2,1.1067927E2,1.2763486E2,6.2234116E1,5.8734467E1,9.881633E1,2.6027618E1,3.614218E1,2.524266E1,6.523581E1,1.1659019E1,7.329007E1,3.9288662E1,4.404114E0,8.712906E0,5.5722046E0,6.7030945E0,4.47723E0,2.0312233E1,2.1536072E1,2.8304094E1,0E0,1.1442655E-1,1.7330818E0,3.7437134E1,7.581253E-1,1.1089763E1,1.4719543E0,4.9410973E0,1.8642616E1,1.5176954E0,6.2556297E-1,6.8982735E0,1.7582703E0,1.9581792E-1,9.236374E-1,3.4702873E-1,3.0326462E-1,3.1858616E1,2.775055E0,4.4048753E-1,1.9369846E1,7.3571568E0,9.3377255E-2,2.2903657E-1,1.3921559E-1,0E0,3.1129557E1,7.942035E1,2.1316245E-2,2.3810577E-1,8.7123165E0,1.7766104E0,2.6402588E0,1.0178434E0,5.3835983E0,1.8357611E0,5.141945E0,3.0593948E0,7.705822E-1,3.8795853E-1,0E0,0E0,0E0,0E0,0E0,0E0,0E0,0E0,0E0,0E0,0E0,0E0,0E0,0E0,0E0,0E0,0E0,0E0,0E0,0E0,0E0,0E0,0E0,0E0,0E0,0E0,0E0,0E0,0E0,0E0,0E0,0E0,0E0,0E0,0E0,0E0,0E0,0E0,0E0,0E0,0E0,0E0,0E0,0E0,0E0,0E0,0E0,0E0,0E0,0E0,0E0,0E0,0E0,0E0,0E0,0E0,0E0,0E0],"parents":[2147483647,0,0,1,1,2,2,3,3,4,4,5,5,6,6,7,7,8,8,9,9,10,10,11,11,12,12,13,13,14,14,15,15,16,16,17,17,18,18,19,19,20,20,22,22,23,23,24,24,25,25,26,26,27,27,28,28,29,29,30,30,31,31,32,32,33,33,34,34,35,35,36,36,37,37,38,38,39,39,40,40,41,41,42,42,43,43,44,44,45,45,47,47,48,48,49,49,50,50,51,51,52,52,53,53,54,54,55,55,56,56,57,57,58,58,59,59,60,60],"right_children":[2,4,6,8,10,12,14,16,18,20,22,24,26,28,30,32,34,36,38,40,42,-1,44,46,48,50,52,54,56,58,60,62,64,66,68,70,72,74,76,78,80,82,84,86,88,90,-1,92,94,96,98,100,102,104,106,108,110,112,114,116,118,-1,-1,-1,-1,-1,-1,-1,-1,-1,-1,-1,-1,-1,-1,-1,-1,-1,-1,-1,-1,-1,-1,-1,-1,-1,-1,-1,-1,-1,-1,-1,-1,-1,-1,-1,-1,-1,-1,-1,-1,-1,-1,-1,-1,-1,-1,-1,-1,-1,-1,-1,-1,-1,-1,-1,-1,-1,-1],"split_conditions":[4.668983E-1,-3.2828736E-1,2.8364558E0,-1.3652754E-1,4.5852196E-1,2.6222947E0,2.045004E-3,-7.5409086E-3,-1.3045248E0,-1.36472E-1,-7.5866664E-3,-1.3654342E-1,-2.6436137E-2,-1.1388175E-1,-7.564751E-3,-2.4672828E0,-2.647417E-2,-2.232963E0,-1.3649893E-1,-7.579878E-3,-1.8114999E-1,-1.7976701E-2,-7.5784535E-3,1E0,9.7559327E-1,-7.518239E-3,-4.9501874E-2,-1.3360095E-2,-6.2827915E-2,-7.5663435E-3,-2.5803685E-2,-2.647417E-2,-5.985588E-1,-7.5361733E-3,-1.3045248E0,-3.002113E0,-1.7327194E0,-5.750538E-1,-1.3649547E-1,-1.3649087E-1,-1.2325365E-1,-1.2845623E-1,-1.616934E-2,-7.5846547E-3,-7.562698E-3,9.775423E-1,-1.0725829E-2,1E0,1E0,-2.6459955E-2,-4.9579866E-2,-7.5710784E-3,-4.258675E-3,-2.6230147E-2,-1.28863E-1,-7.577825E-3,-7.5694863E-3,4.9669135E-1,1.937574E-2,-1.3604346E-1,-7.4814484E-3,-5.910685E-4,-1.9012531E-2,-8.729526E-3,-2.0212783E-3,-1.5281229E-2,-1.2156161E-2,-1.0933797E-2,-2.407231E-3,-2.0687006E-2,-1.39680775E-2,-1.0503788E-2,-8.045211E-3,-5.2180695E-3,-2.471757E-3,9.9319285E-3,-2.1363038E-3,4.14329E-3,6.259532E-3,-1.1899493E-3,2.1851191E-4,-3.212055E-3,-5.152409E-4,1.07521344E-4,3.3210458E-3,5.7493723E-3,-5.4096687E-3,1.5356898E-2,2.9469903E-3,5.1961973E-4,1.0111901E-2,5.5105924E-3,-7.262762E-3,8.378911E-3,2.7700832E-2,-0E0,5.763188E-3,-1.7615221E-2,-1.1521233E-3,1.5854439E-2,1.0428833E-1,8.2310615E-3,3.2916732E-2,1.804858E-2,3.9966274E-2,-1.4642696E-4,1.994453E-2,5.830731E-2,1.7871719E-2,2.5537923E-2,8.2344925E-3,3.8077757E-2,7.558987E-2,1.7668645E-1,4.4781096E-2,1.6198544E-2,-2.6196209E-3,3.032563E-2,1.2746229E-3],"split_indices":[5,5,5,2,5,5,3,0,5,2,0,2,1,2,0,5,1,5,2,0,5,0,0,6,5,0,4,3,2,0,1,1,5,0,5,5,5,5,2,2,5,2,2,0,0,5,0,6,6,1,4,0,1,1,2,0,0,1,3,2,0,0,0,0,0,0,0,0,0,0,0,0,0,0,0,0,0,0,0,0,0,0,0,0,0,0,0,0,0,0,0,0,0,0,0,0,0,0,0,0,0,0,0,0,0,0,0,0,0,0,0,0,0,0,0,0,0,0,0],"split_type":[0,0,0,0,0,0,0,0,0,0,0,0,0,0,0,0,0,0,0,0,0,0,0,0,0,0,0,0,0,0,0,0,0,0,0,0,0,0,0,0,0,0,0,0,0,0,0,0,0,0,0,0,0,0,0,0,0,0,0,0,0,0,0,0,0,0,0,0,0,0,0,0,0,0,0,0,0,0,0,0,0,0,0,0,0,0,0,0,0,0,0,0,0,0,0,0,0,0,0,0,0,0,0,0,0,0,0,0,0,0,0,0,0,0,0,0,0,0,0],"sum_hessian":[9.6115E4,7.939436E4,1.6720645E4,2.290548E4,5.648888E4,1.5215413E4,1.5052311E3,4.7967275E3,1.8108752E4,5.5854055E4,6.348214E2,1.4559903E4,6.555105E2,1.3160264E3,1.8920473E2,2.292018E3,2.5047095E3,1.01009296E3,1.709866E4,9.75581E3,4.6098246E4,5.6207605E2,7.274538E1,5.7876074E2,1.3981142E4,5.707521E2,8.475838E1,1.1938943E3,1.2213215E2,1.3547992E2,5.3724796E1,5.657467E2,1.7262715E3,2.3678948E3,1.368147E2,2.5527621E2,7.548167E2,5.779265E3,1.1319395E4,7.3738994E3,2.3819106E3,2.7298188E4,1.8800059E4,7.007582E0,6.573779E1,1.668472E1,5.6207605E2,3.6747065E3,1.0306436E4,4.0043325E0,5.6674774E2,1.134561E1,7.3412766E1,1.1665312E3,2.736294E1,3.804116E1,8.409099E1,1.3147559E2,4.0043325E0,2.4693386E1,2.9031412E1,5.6207605E2,3.6706383E0,1.1465096E3,5.7976184E2,1.6862281E3,6.816667E2,6.673888E0,1.3014081E2,9.8106155E1,1.5717006E2,2.612827E2,4.9353403E2,5.667144E3,1.12121315E2,5.7509015E2,1.0744305E4,5.121591E3,2.2523086E3,1.5149725E3,8.6693805E2,1.5760478E4,1.153771E4,1.6808307E4,1.9917509E3,1.3347776E0,5.672805E0,3.336944E0,6.2400852E1,9.677137E0,7.007582E0,3.1126304E3,5.6207605E2,9.744359E3,5.6207605E2,2.3358607E0,1.668472E0,5.637445E2,3.0032496E0,6.0064993E0,5.3391104E0,6.573779E1,7.674971E0,1.1525161E3,1.4015164E1,1.9354275E1,8.008665E0,2.3024914E1,1.5016248E1,6.073238E1,2.3358608E1,1.2079737E2,1.0678221E1,2.3358607E0,1.668472E0,1.8019497E1,6.673888E0,2.736294E1,1.668472E0],"tree_param":{"num_deleted":"0","num_feature":"8","num_nodes":"119","size_leaf_vector":"1"}},{"base_weights":[8.367733E-6,-3.0765248E-2,1.461293E-1,-8.64727E-2,-8.173726E-3,1.1996065E-1,4.103296E-1,-1.8270189E-1,-6.0968872E-2,-4.9036792E-3,-2.9526758E-1,1.3620305E-1,-2.4031392E-1,3.6205286E-1,7.419274E-1,-9.636726E-2,-2.6159537E-1,-2.0692731E-1,-5.2329022E-2,6.5665916E-2,-1.9841652E-2,-1.7079463E-2,6.1065044E-2,-1.9474567E-1,1.4992306E-1,-3.3032483E-1,3.614261E-1,3.4354848E-1,5.3786975E-1,8.7188065E-1,4.02448E-1,-1.4345616E-2,-1.23166256E-1,-2.7340868E-1,-5.5912532E-2,-3.1632254E-1,-1.694284E-1,-9.815792E-2,-2.891504E-2,9.103339E-2,-1.2829776E-2,-3.9377388E-2,8.520028E-3,-4.126955E-2,7.3927134E-2,9.921052E-2,-1.019049E-2,6.752416E-2,1.7928284E-1,5.1227603E-2,-3.332823E-1,1.2062223E0,2.1506745E-1,3.4870768E-1,1.1553698E-1,9.893386E-1,4.4492579E-1,7.9338133E-1,2.75572E0,2.2853193E-1,5.7276016E-1,-5.6156766E-4,-1.8265435E-2,-8.293429E-3,-1.9203883E-3,-1.451762E-2,-1.1549243E-2,-1.0458346E-2,-2.2877872E-3,-1.9663094E-2,-1.327409E-2,-9.980601E-3,-7.6437644E-3,-4.9572117E-3,-2.349262E-3,9.436194E-3,-2.0294988E-3,3.936166E-3,5.946695E-3,-1.1304911E-3,2.0759895E-4,-3.0514624E-3,-4.894811E-4,1.0214554E-4,3.1550766E-3,5.5850283E-3,-5.179721E-3,1.47661E-2,2.8019648E-3,-0E0,8.149487E-3,5.2351514E-3,-6.900269E-3,7.960008E-3,2.631825E-2,-0E0,5.583015E-3,-1.673602E-2,-1.108907E-3,1.5174858E-2,9.989648E-2,2.0449916E-3,1.7535951E-2,1.7146932E-2,3.8101047E-2,-2.8056395E-3,1.5121347E-2,5.9125226E-2,3.995733E-3,2.7408024E-2,1.2296408E-2,3.6189504E-2,7.213402E-2,1.7050043E-1,4.338112E-2,-9.772803E-4,1.42596485E-2,3.2016013E-2,8.188852E-3],"categories":[],"categories_nodes":[],"categories_segments":[],"categories_sizes":[],"default_left":[0,0,0,0,0,0,0,0,0,0,0,0,0,0,0,0,0,0,0,0,0,0,0,0,0,0,0,0,0,0,0,0,0,0,0,0,0,0,0,0,0,0,0,0,0,0,0,0,0,0,0,0,0,0,0,0,0,0,1,0,0,0,0,0,0,0,0,0,0,0,0,0,0,0,0,0,0,0,0,0,0,0,0,0,0,0,0,0,0,0,0,0,0,0,0,0,0,0,0,0,0,0,0,0,0,0,0,0,0,0,0,0,0,0,0,0,0,0,0],"id":6,"left_children":[1,3,5,7,9,11,13,15,17,19,21,23,25,27,29,31,33,35,37,39,41,-1,43,45,47,49,51,53,55,57,59,61,63,65,67,69,71,73,75,77,79,81,83,85,87,89,-1,91,93,95,97,99,101,103,105,107,109,111,113,115,117,-1,-1,-1,-1,-1,-1,-1,-1,-1,-1,-1,-1,-1,-1,-1,-1,-1,-1,-1,-1,-1,-1,-1,-1,-1,-1,-1,-1,-1,-1,-1,-1,-1,-1,-1,-1,-1,-1,-1,-1,-1,-1,-1,-1,-1,-1,-1,-1,-1,-1,-1,-1,-1,-1,-1,-1,-1,-1],"loss_changes":[4.322179E2,9.991015E1,1.1550726E2,5.618187E1,5.30018E1,8.9064575E1,2.3733429E1,3.2617462E1,2.2800713E1,5.8877262E1,1.0543732E1,6.614017E1,3.567497E1,4.011856E0,7.9128494E0,5.0247574E0,6.040161E0,4.04554E0,1.8333027E1,1.9437115E1,2.5545464E1,0E0,1.03383094E-1,1.5754242E0,3.3789062E1,6.904602E-1,1.0201893E1,1.3189392E0,4.5831757E0,1.7641418E1,1.4099274E0,5.776925E-1,6.224865E0,1.5836029E0,1.7945573E-1,8.3218384E-1,3.1186485E-1,2.7246857E-1,2.8757063E1,2.50383E0,3.9769906E-1,1.7480999E1,6.640109E0,8.710397E-2,2.126143E-1,1.2730889E-1,0E0,2.8098494E1,7.169394E1,2.0137856E-2,2.1088791E-1,7.9868298E0,1.7045777E0,2.4120483E0,9.514737E-1,3.2962666E0,1.9245987E0,4.725136E0,2.7957916E0,4.4019902E-1,5.523138E-1,0E0,0E0,0E0,0E0,0E0,0E0,0E0,0E0,0E0,0E0,0E0,0E0,0E0,0E0,0E0,0E0,0E0,0E0,0E0,0E0,0E0,0E0,0E0,0E0,0E0,0E0,0E0,0E0,0E0,0E0,0E0,0E0,0E0,0E0,0E0,0E0,0E0,0E0,0E0,0E0,0E0,0E0,0E0,0E0,0E0,0E0,0E0,0E0,0E0,0E0,0E0,0E0,0E0,0E0,0E0,0E0,0E0,0E0],"parents":[2147483647,0,0,1,1,2,2,3,3,4,4,5,5,6,6,7,7,8,8,9,9,10,10,11,11,12,12,13,13,14,14,15,15,16,16,17,17,18,18,19,19,20,20,22,22,23,23,24,24,25,25,26,26,27,27,28,28,29,29,30,30,31,31,32,32,33,33,34,34,35,35,36,36,37,37,38,38,39,39,40,40,41,41,42,42,43,43,44,44,45,45,47,47,48,48,49,49,50,50,51,51,52,52,53,53,54,54,55,55,56,56,57,57,58,58,59,59,60,60],"right_children":[2,4,6,8,10,12,14,16,18,20,22,24,26,28,30,32,34,36,38,40,42,-1,44,46,48,50,52,54,56,58,60,62,64,66,68,70,72,74,76,78,80,82,84,86,88,90,-1,92,94,96,98,100,102,104,106,108,110,112,114,116,118,-1,-1,-1,-1,-1,-1,-1,-1,-1,-1,-1,-1,-1,-1,-1,-1,-1,-1,-1,-1,-1,-1,-1,-1,-1,-1,-1,-1,-1,-1,-1,-1,-1,-1,-1,-1,-1,-1,-1,-1,-1,-1,-1,-1,-1,-1,-1,-1,-1,-1,-1,-1,-1,-1,-1,-1,-1,-1],"split_conditions":[4.668983E-1,-3.2828736E-1,2.8364558E0,-1.3652754E-1,4.5852196E-1,2.6222947E0,2.045004E-3,-7.5409086E-3,-1.3045248E0,-1.36472E-1,-7.5866664E-3,-1.3654342E-1,-2.6436137E-2,-1.1388175E-1,-7.564751E-3,-2.4672828E0,-2.647417E-2,-2.232963E0,-1.3649893E-1,-7.579878E-3,-1.8114999E-1,-1.7079463E-2,-7.5784535E-3,1E0,9.7559327E-1,-7.518239E-3,-4.9501874E-2,-1.3360095E-2,-4.97963E-2,-7.5663435E-3,-4.333718E-2,-2.647417E-2,-5.985588E-1,-7.5361733E-3,-1.3045248E0,-3.002113E0,-1.7327194E0,-5.750538E-1,-1.3649547E-1,-1.3649087E-1,-1.2325365E-1,-1.2845623E-1,-1.616934E-2,-7.5846547E-3,-7.562698E-3,7.062004E-1,-1.019049E-2,1E0,1E0,-2.6459955E-2,-4.9579866E-2,-7.5710784E-3,-4.698926E-2,-2.6230147E-2,-2.5910972E-2,-7.5842775E-3,-7.5694863E-3,4.9669135E-1,1.937574E-2,1.1673191E-2,-7.506967E-3,-5.6156766E-4,-1.8265435E-2,-8.293429E-3,-1.9203883E-3,-1.451762E-2,-1.1549243E-2,-1.0458346E-2,-2.2877872E-3,-1.9663094E-2,-1.327409E-2,-9.980601E-3,-7.6437644E-3,-4.9572117E-3,-2.349262E-3,9.436194E-3,-2.0294988E-3,3.936166E-3,5.946695E-3,-1.1304911E-3,2.0759895E-4,-3.0514624E-3,-4.894811E-4,1.0214554E-4,3.1550766E-3,5.5850283E-3,-5.179721E-3,1.47661E-2,2.8019648E-3,-0E0,8.149487E-3,5.2351514E-3,-6.900269E-3,7.960008E-3,2.631825E-2,-0E0,5.583015E-3,-1.673602E-2,-1.108907E-3,1.5174858E-2,9.989648E-2,2.0449916E-3,1.7535951E-2,1.7146932E-2,3.8101047E-2,-2.8056395E-3,1.5121347E-2,5.9125226E-2,3.995733E-3,2.7408024E-2,1.2296408E-2,3.6189504E-2,7.213402E-2,1.7050043E-1,4.338112E-2,-9.772803E-4,1.42596485E-2,3.2016013E-2,8.188852E-3],"split_indices":[5,5,5,2,5,5,3,0,5,2,0,2,1,2,0,5,1,5,2,0,5,0,0,6,5,0,4,3,4,0,4,1,5,0,5,5,5,5,2,2,5,2,2,0,0,5,0,6,6,1,4,0,4,1,1,0,0,1,3,3,0,0,0,0,0,0,0,0,0,0,0,0,0,0,0,0,0,0,0,0,0,0,0,0,0,0,0,0,0,0,0,0,0,0,0,0,0,0,0,0,0,0,0,0,0,0,0,0,0,0,0,0,0,0,0,0,0,0,0],"split_type":[0,0,0,0,0,0,0,0,0,0,0,0,0,0,0,0,0,0,0,0,0,0,0,0,0,0,0,0,0,0,0,0,0,0,0,0,0,0,0,0,0,0,0,0,0,0,0,0,0,0,0,0,0,0,0,0,0,0,0,0,0,0,0,0,0,0,0,0,0,0,0,0,0,0,0,0,0,0,0,0,0,0,0,0,0,0,0,0,0,0,0,0,0,0,0,0,0,0,0,0,0,0,0,0,0,0,0,0,0,0,0,0,0,0,0,0,0,0,0],"sum_hessian":[9.6115E4,7.939436E4,1.6720645E4,2.290548E4,5.648888E4,1.5215413E4,1.5052311E3,4.7967275E3,1.8108752E4,5.5854055E4,6.348214E2,1.4559903E4,6.555105E2,1.3160264E3,1.8920473E2,2.292018E3,2.5047095E3,1.01009296E3,1.709866E4,9.75581E3,4.6098246E4,5.6207605E2,7.274538E1,5.7876074E2,1.3981142E4,5.707521E2,8.475838E1,1.1938943E3,1.2213215E2,1.3547992E2,5.3724796E1,5.657467E2,1.7262715E3,2.3678948E3,1.368147E2,2.5527621E2,7.548167E2,5.779265E3,1.1319395E4,7.3738994E3,2.3819106E3,2.7298188E4,1.8800059E4,7.007582E0,6.573779E1,1.668472E1,5.6207605E2,3.6747065E3,1.0306436E4,4.0043325E0,5.6674774E2,1.134561E1,7.3412766E1,1.1665312E3,2.736294E1,1.902058E1,1.0311157E2,1.3147559E2,4.0043325E0,2.8030329E1,2.569447E1,5.6207605E2,3.6706383E0,1.1465096E3,5.7976184E2,1.6862281E3,6.816667E2,6.673888E0,1.3014081E2,9.8106155E1,1.5717006E2,2.612827E2,4.9353403E2,5.667144E3,1.12121315E2,5.7509015E2,1.0744305E4,5.121591E3,2.2523086E3,1.5149725E3,8.6693805E2,1.5760478E4,1.153771E4,1.6808307E4,1.9917509E3,1.3347776E0,5.672805E0,3.336944E0,6.2400852E1,6.3401937E0,1.0344526E1,3.1126304E3,5.6207605E2,9.744359E3,5.6207605E2,2.3358607E0,1.668472E0,5.637445E2,3.0032496E0,6.0064993E0,5.3391104E0,3.3035744E1,4.037702E1,1.1525161E3,1.4015164E1,1.4348859E1,1.3014082E1,1.5349942E1,3.6706383E0,6.640518E1,3.6706383E1,1.2079737E2,1.0678221E1,2.3358607E0,1.668472E0,5.005416E0,2.3024914E1,2.1356441E1,4.338027E0],"tree_param":{"num_deleted":"0","num_feature":"8","num_nodes":"119","size_leaf_vector":"1"}},{"base_weights":[1.4280266E-5,-2.9228983E-2,1.38869E-1,-8.215706E-2,-7.764515E-3,1.13973536E-1,3.902122E-1,-1.7358822E-1,-5.7924595E-2,-4.658071E-3,-2.8048706E-1,1.2939502E-1,-2.2808452E-1,3.4409854E-1,7.069376E-1,-9.156811E-2,-2.4853705E-1,-1.966458E-1,-4.971286E-2,6.2384058E-2,-1.8849466E-2,-1.6227005E-2,5.8323313E-2,-1.8501143E-1,1.4242959E-1,4.835941E-1,-2.9723766E-1,3.2643178E-1,5.1193315E-1,8.307573E-1,3.8339436E-1,-1.3670378E-2,-1.17016755E-1,-2.5975135E-1,-5.3245675E-2,-3.257166E-1,-1.6776152E-1,-9.325216E-2,-2.746819E-2,8.648375E-2,-1.2186577E-2,-3.7408832E-2,8.094467E-3,1.6685301E-2,9.5025495E-2,9.4443545E-2,-9.681869E-3,6.414614E-2,1.7032251E-1,9.49057E-1,3.081453E-1,-3.1653348E-1,1.0363221E-1,3.313239E-1,1.1001807E-1,7.9727846E-1,3.7382045E-1,7.545677E-1,2.6616724E0,2.0939015E-1,5.3808093E-1,-5.3353916E-4,-1.7547699E-2,-7.875783E-3,-1.8172024E-3,-1.3792169E-2,-1.09726265E-2,-5.7242024E-3,-1.5412545E-3,-1.8689858E-2,-1.3235687E-2,-1.0008184E-2,-7.262349E-3,-4.709395E-3,-2.232837E-3,8.965204E-3,-1.9280332E-3,3.7393966E-3,5.6494917E-3,-1.0740039E-3,1.9723095E-4,-1.1696897E-3,-4.00456E-3,9.703861E-5,2.9974019E-3,4.5258133E-3,-1.9559308E-3,5.0566383E-3,-0E0,3.6872344E-4,9.312857E-3,4.973478E-3,-6.555868E-3,7.5620487E-3,2.5004674E-2,1.187356E-2,7.532044E-2,4.352243E-3,2.603817E-2,-4.2401766E-3,-1.5871583E-2,9.249821E-3,-8.7832223E-4,1.6246242E-2,3.3843484E-2,-2.2650052E-4,1.838586E-2,6.08699E-2,2.3473445E-2,2.2821663E-2,7.2500906E-3,3.4394886E-2,6.883616E-2,1.6453098E-1,4.2024907E-2,2.4526512E-2,6.5946886E-3,3.1084687E-2,5.5635753E-3],"categories":[],"categories_nodes":[],"categories_segments":[],"categories_sizes":[],"default_left":[0,0,0,0,0,0,0,0,0,0,0,0,0,0,0,0,0,0,0,0,0,0,0,0,0,0,0,0,0,0,0,0,0,0,0,0,0,0,0,0,0,0,0,0,1,0,0,0,0,0,0,0,1,0,0,0,0,0,1,0,0,0,0,0,0,0,0,0,0,0,0,0,0,0,0,0,0,0,0,0,0,0,0,0,0,0,0,0,0,0,0,0,0,0,0,0,0,0,0,0,0,0,0,0,0,0,0,0,0,0,0,0,0,0,0,0,0,0,0],"id":7,"left_children":[1,3,5,7,9,11,13,15,17,19,21,23,25,27,29,31,33,35,37,39,41,-1,43,45,47,49,51,53,55,57,59,61,63,65,67,69,71,73,75,77,79,81,83,85,87,89,-1,91,93,95,97,99,101,103,105,107,109,111,113,115,117,-1,-1,-1,-1,-1,-1,-1,-1,-1,-1,-1,-1,-1,-1,-1,-1,-1,-1,-1,-1,-1,-1,-1,-1,-1,-1,-1,-1,-1,-1,-1,-1,-1,-1,-1,-1,-1,-1,-1,-1,-1,-1,-1,-1,-1,-1,-1,-1,-1,-1,-1,-1,-1,-1,-1,-1,-1,-1],"loss_changes":[3.9030032E2,9.01893E1,1.0453757E2,5.071846E1,4.7828255E1,8.0286865E1,2.1650711E1,2.9436356E1,2.0595165E1,5.3138515E1,9.53558E0,5.969487E1,3.2435154E1,3.6541443E0,7.179878E0,4.5309887E0,5.442505E0,3.6654816E0,1.6546684E1,1.7542728E1,2.3055729E1,0E0,9.994155E-2,1.4257584E0,3.0496399E1,4.35069E0,4.6883087E0,1.1844864E0,4.4374657E0,1.6688469E1,1.2855635E0,5.334782E-1,5.6181564E0,1.4261322E0,1.7115965E-1,3.7452507E-1,5.410824E-1,2.4475098E-1,2.5957474E1,2.2590675E0,3.5907304E-1,1.631802E1,5.9929447E0,1.612834E-1,1.4455169E-2,1.2063712E-1,0E0,2.5362598E1,6.471915E1,5.555293E0,1.9645166E0,5.1929474E-2,2.9639563E-1,2.2614899E0,8.7522846E-1,4.6364975E0,1.4821777E0,4.341461E0,2.5532036E0,4.7647202E-1,8.577986E-1,0E0,0E0,0E0,0E0,0E0,0E0,0E0,0E0,0E0,0E0,0E0,0E0,0E0,0E0,0E0,0E0,0E0,0E0,0E0,0E0,0E0,0E0,0E0,0E0,0E0,0E0,0E0,0E0,0E0,0E0,0E0,0E0,0E0,0E0,0E0,0E0,0E0,0E0,0E0,0E0,0E0,0E0,0E0,0E0,0E0,0E0,0E0,0E0,0E0,0E0,0E0,0E0,0E0,0E0,0E0,0E0,0E0,0E0],"parents":[2147483647,0,0,1,1,2,2,3,3,4,4,5,5,6,6,7,7,8,8,9,9,10,10,11,11,12,12,13,13,14,14,15,15,16,16,17,17,18,18,19,19,20,20,22,22,23,23,24,24,25,25,26,26,27,27,28,28,29,29,30,30,31,31,32,32,33,33,34,34,35,35,36,36,37,37,38,38,39,39,40,40,41,41,42,42,43,43,44,44,45,45,47,47,48,48,49,49,50,50,51,51,52,52,53,53,54,54,55,55,56,56,57,57,58,58,59,59,60,60],"right_children":[2,4,6,8,10,12,14,16,18,20,22,24,26,28,30,32,34,36,38,40,42,-1,44,46,48,50,52,54,56,58,60,62,64,66,68,70,72,74,76,78,80,82,84,86,88,90,-1,92,94,96,98,100,102,104,106,108,110,112,114,116,118,-1,-1,-1,-1,-1,-1,-1,-1,-1,-1,-1,-1,-1,-1,-1,-1,-1,-1,-1,-1,-1,-1,-1,-1,-1,-1,-1,-1,-1,-1,-1,-1,-1,-1,-1,-1,-1,-1,-1,-1,-1,-1,-1,-1,-1,-1,-1,-1,-1,-1,-1,-1,-1,-1,-1,-1,-1,-1],"split_conditions":[4.668983E-1,-3.2828736E-1,2.8364558E0,-1.3652754E-1,4.5852196E-1,2.6222947E0,2.045004E-3,-7.5409086E-3,-1.3045248E0,-1.36472E-1,-7.5866664E-3,-1.3654342E-1,-7.5253206E-3,-1.1388175E-1,-7.564751E-3,-2.4672828E0,-2.647417E-2,-2.4672828E0,-1.3649893E-1,-7.579878E-3,-1.8114999E-1,-1.6227005E-2,-7.4621313E-3,1E0,9.7559327E-1,-4.9501874E-2,-1.721137E-2,-1.3360095E-2,-6.2827915E-2,-7.5663435E-3,-4.3765504E-2,-2.647417E-2,-5.815843E-1,-7.5361733E-3,-5.815843E-1,-3.002113E0,-1.7327194E0,-5.750538E-1,-1.3649547E-1,-1.3649087E-1,-1.2325365E-1,1E0,-1.616934E-2,-7.5396514E-3,8.292177E-2,9.775423E-1,-9.681869E-3,1E0,1E0,-4.9692247E-2,-4.698926E-2,-7.518239E-3,2.045004E-3,-1.721137E-2,-1.28863E-1,-7.5846547E-3,-7.5694863E-3,4.9669135E-1,1.937574E-2,3.1037962E0,-7.506967E-3,-5.3353916E-4,-1.7547699E-2,-7.875783E-3,-1.8172024E-3,-1.3792169E-2,-1.09726265E-2,-5.7242024E-3,-1.5412545E-3,-1.8689858E-2,-1.3235687E-2,-1.0008184E-2,-7.262349E-3,-4.709395E-3,-2.232837E-3,8.965204E-3,-1.9280332E-3,3.7393966E-3,5.6494917E-3,-1.0740039E-3,1.9723095E-4,-1.1696897E-3,-4.00456E-3,9.703861E-5,2.9974019E-3,4.5258133E-3,-1.9559308E-3,5.0566383E-3,-0E0,3.6872344E-4,9.312857E-3,4.973478E-3,-6.555868E-3,7.5620487E-3,2.5004674E-2,1.187356E-2,7.532044E-2,4.352243E-3,2.603817E-2,-4.2401766E-3,-1.5871583E-2,9.249821E-3,-8.7832223E-4,1.6246242E-2,3.3843484E-2,-2.2650052E-4,1.838586E-2,6.08699E-2,2.3473445E-2,2.2821663E-2,7.2500906E-3,3.4394886E-2,6.883616E-2,1.6453098E-1,4.2024907E-2,2.4526512E-2,6.5946886E-3,3.1084687E-2,5.5635753E-3],"split_indices":[5,5,5,2,5,5,3,0,5,2,0,2,0,2,0,5,1,5,2,0,5,0,0,6,5,4,3,3,2,0,4,1,5,0,5,5,5,5,2,2,5,6,2,0,3,5,0,6,6,4,4,0,3,3,2,0,0,1,3,5,0,0,0,0,0,0,0,0,0,0,0,0,0,0,0,0,0,0,0,0,0,0,0,0,0,0,0,0,0,0,0,0,0,0,0,0,0,0,0,0,0,0,0,0,0,0,0,0,0,0,0,0,0,0,0,0,0,0,0],"split_type":[0,0,0,0,0,0,0,0,0,0,0,0,0,0,0,0,0,0,0,0,0,0,0,0,0,0,0,0,0,0,0,0,0,0,0,0,0,0,0,0,0,0,0,0,0,0,0,0,0,0,0,0,0,0,0,0,0,0,0,0,0,0,0,0,0,0,0,0,0,0,0,0,0,0,0,0,0,0,0,0,0,0,0,0,0,0,0,0,0,0,0,0,0,0,0,0,0,0,0,0,0,0,0,0,0,0,0,0,0,0,0,0,0,0,0,0,0,0,0],"sum_hessian":[9.6115E4,7.939436E4,1.6720645E4,2.290548E4,5.648888E4,1.5215413E4,1.5052311E3,4.7967275E3,1.8108752E4,5.5854055E4,6.348214E2,1.4559903E4,6.555105E2,1.3160264E3,1.8920473E2,2.292018E3,2.5047095E3,1.01009296E3,1.709866E4,9.75581E3,4.6098246E4,5.6207605E2,7.274538E1,5.7876074E2,1.3981142E4,5.7395435E1,5.9811505E2,1.1938943E3,1.2213215E2,1.3547992E2,5.3724796E1,5.657467E2,1.7262715E3,2.3678948E3,1.368147E2,1.8219714E2,8.278958E2,5.779265E3,1.1319395E4,7.3738994E3,2.3819106E3,2.7298188E4,1.8800059E4,3.6038994E1,3.6706383E1,1.668472E1,5.6207605E2,3.6747065E3,1.0306436E4,1.4348859E1,4.3046577E1,5.710858E2,2.7029245E1,1.1665312E3,2.736294E1,3.804116E1,8.409099E1,1.3147559E2,4.0043325E0,2.6695553E1,2.7029245E1,5.6207605E2,3.6706383E0,1.1478444E3,5.7842706E2,1.6862281E3,6.816667E2,3.437052E1,1.0244418E2,9.8106155E1,8.409099E1,3.343618E2,4.9353403E2,5.667144E3,1.12121315E2,5.7509015E2,1.0744305E4,5.121591E3,2.2523086E3,1.5149725E3,8.6693805E2,2.0553275E4,6.7449126E3,1.6808307E4,1.9917509E3,1.601733E1,2.0021664E1,3.3703133E1,3.0032496E0,9.677137E0,7.007582E0,3.1126304E3,5.6207605E2,9.744359E3,5.6207605E2,7.007582E0,7.3412766E0,2.202383E1,2.1022747E1,3.0032496E0,5.680825E2,1.6351025E1,1.0678221E1,1.1475107E3,1.902058E1,1.9354275E1,8.008665E0,1.5349942E1,2.269122E1,6.073238E1,2.3358608E1,1.2079737E2,1.0678221E1,2.3358607E0,1.668472E0,4.338027E0,2.2357525E1,2.202383E1,5.005416E0],"tree_param":{"num_deleted":"0","num_feature":"8","num_nodes":"119","size_leaf_vector":"1"}},{"base_weights":[2.0013324E-5,-2.776958E-2,1.3197263E-1,-7.80568E-2,-7.3759975E-3,1.0828517E-1,3.711167E-1,-1.6492857E-1,-5.503246E-2,-4.4247843E-3,-2.664626E-1,1.2292808E-1,-2.1649623E-1,3.270513E-1,6.7375976E-1,-8.700836E-2,-2.3612897E-1,-1.86877E-1,-4.7227502E-2,5.877756E-2,-1.8013617E-2,-1.5417096E-2,5.556036E-2,-1.7574362E-1,1.3531068E-1,-2.9796684E-1,3.3293763E-1,3.1017148E-1,4.873875E-1,7.915992E-1,3.657371E-1,-1.3027584E-2,-1.1117442E-1,-2.4677636E-1,-5.067239E-2,-2.863028E-1,-1.5278494E-1,-8.859161E-2,-2.6093718E-2,8.222185E-2,-9.8103555E-3,-3.4436956E-2,9.45305E-3,-4.2491674E-2,6.7991085E-2,9.0551555E-2,-9.198637E-3,6.0937043E-2,1.6181003E-1,3.1177497E-2,-3.0090627E-1,1.1735821E0,1.9519016E-1,3.1480488E-1,1.04981124E-1,7.59703E-1,3.555416E-1,7.176563E-1,2.5708632E0,2.0022488E-1,5.1266277E-1,-5.069095E-4,-1.6858166E-2,-7.482336E-3,-1.7264992E-3,-1.310297E-2,-1.0424799E-2,-9.754659E-3,-2.0536236E-3,-1.7764796E-2,-1.2031541E-2,-8.984973E-3,-6.8999655E-3,-4.4739665E-3,-2.1221822E-3,8.517722E-3,-1.8316405E-3,2.2568642E-3,4.4874125E-3,-9.659617E-4,3.1161608E-4,-1.0837842E-3,-3.8043621E-3,6.0583767E-3,1.6964733E-4,5.296014E-3,-5.151925E-3,1.402392E-2,2.5403101E-3,3.5201418E-4,8.905365E-3,4.724884E-3,-6.228657E-3,7.1839853E-3,2.3756659E-2,-0E0,3.6091197E-3,-1.5108526E-2,-1.1204481E-3,1.3156682E-2,9.865687E-2,6.955478E-3,2.9629925E-2,1.5472359E-2,3.493893E-2,-2.6639102E-3,1.3897926E-2,5.130094E-2,1.5327166E-2,2.0424215E-2,6.5407704E-4,3.268926E-2,6.568907E-2,1.5877053E-1,4.0711097E-2,2.352992E-2,6.2790713E-3,2.9597959E-2,5.3317184E-3],"categories":[],"categories_nodes":[],"categories_segments":[],"categories_sizes":[],"default_left":[0,0,0,0,0,0,0,0,0,0,0,0,0,0,0,0,0,0,0,0,0,0,0,0,0,0,0,0,0,0,0,0,0,0,0,0,0,0,0,0,0,0,0,0,0,0,0,0,0,0,0,0,0,0,0,0,0,0,1,0,0,0,0,0,0,0,0,0,0,0,0,0,0,0,0,0,0,0,0,0,0,0,0,0,0,0,0,0,0,0,0,0,0,0,0,0,0,0,0,0,0,0,0,0,0,0,0,0,0,0,0,0,0,0,0,0,0,0,0],"id":8,"left_children":[1,3,5,7,9,11,13,15,17,19,21,23,25,27,29,31,33,35,37,39,41,-1,43,45,47,49,51,53,55,57,59,61,63,65,67,69,71,73,75,77,79,81,83,85,87,89,-1,91,93,95,97,99,101,103,105,107,109,111,113,115,117,-1,-1,-1,-1,-1,-1,-1,-1,-1,-1,-1,-1,-1,-1,-1,-1,-1,-1,-1,-1,-1,-1,-1,-1,-1,-1,-1,-1,-1,-1,-1,-1,-1,-1,-1,-1,-1,-1,-1,-1,-1,-1,-1,-1,-1,-1,-1,-1,-1,-1,-1,-1,-1,-1,-1,-1,-1,-1],"loss_changes":[3.524628E2,8.141373E1,9.4635254E1,4.578569E1,4.3165016E1,7.238266E1,1.976677E1,2.6564697E1,1.8603436E1,4.7967876E1,8.617165E0,5.3870773E1,2.9482904E1,3.3335266E0,6.4986496E0,4.0856457E0,4.9055786E0,3.3395805E0,1.4934402E1,1.589978E1,2.0741034E1,0E0,9.532413E-2,1.2964725E0,2.7524597E1,5.90168E-1,9.487303E0,1.0610046E0,4.0392647E0,1.5782005E1,1.1568608E0,4.9264142E-1,5.069601E0,1.2842102E0,1.594406E-1,6.624508E-1,2.4420738E-1,2.1981049E-1,2.343044E1,2.0385628E0,3.8545156E-1,1.5281612E1,1.1632454E1,8.2580805E-2,1.9631925E-1,1.0954003E-1,0E0,2.289312E1,5.842282E1,1.1867708E-2,1.6067123E-1,7.758381E0,1.5028226E0,2.0848236E0,8.137206E-1,4.263853E0,1.495264E0,3.9883347E0,2.3300133E0,4.402244E-1,7.6946306E-1,0E0,0E0,0E0,0E0,0E0,0E0,0E0,0E0,0E0,0E0,0E0,0E0,0E0,0E0,0E0,0E0,0E0,0E0,0E0,0E0,0E0,0E0,0E0,0E0,0E0,0E0,0E0,0E0,0E0,0E0,0E0,0E0,0E0,0E0,0E0,0E0,0E0,0E0,0E0,0E0,0E0,0E0,0E0,0E0,0E0,0E0,0E0,0E0,0E0,0E0,0E0,0E0,0E0,0E0,0E0,0E0,0E0,0E0],"parents":[2147483647,0,0,1,1,2,2,3,3,4,4,5,5,6,6,7,7,8,8,9,9,10,10,11,11,12,12,13,13,14,14,15,15,16,16,17,17,18,18,19,19,20,20,22,22,23,23,24,24,25,25,26,26,27,27,28,28,29,29,30,30,31,31,32,32,33,33,34,34,35,35,36,36,37,37,38,38,39,39,40,40,41,41,42,42,43,43,44,44,45,45,47,47,48,48,49,49,50,50,51,51,52,52,53,53,54,54,55,55,56,56,57,57,58,58,59,59,60,60],"right_children":[2,4,6,8,10,12,14,16,18,20,22,24,26,28,30,32,34,36,38,40,42,-1,44,46,48,50,52,54,56,58,60,62,64,66,68,70,72,74,76,78,80,82,84,86,88,90,-1,92,94,96,98,100,102,104,106,108,110,112,114,116,118,-1,-1,-1,-1,-1,-1,-1,-1,-1,-1,-1,-1,-1,-1,-1,-1,-1,-1,-1,-1,-1,-1,-1,-1,-1,-1,-1,-1,-1,-1,-1,-1,-1,-1,-1,-1,-1,-1,-1,-1,-1,-1,-1,-1,-1,-1,-1,-1,-1,-1,-1,-1,-1,-1,-1,-1,-1,-1],"split_conditions":[4.668983E-1,-3.2828736E-1,2.8364558E0,-1.3652754E-1,4.5852196E-1,2.6222947E0,2.045004E-3,-7.5409086E-3,-1.3045248E0,-1.3646734E-1,-7.5866664E-3,-1.3654342E-1,-2.64297E-2,-1.1388175E-1,-7.564751E-3,-2.4672828E0,-2.647417E-2,-2.232963E0,-1.3649893E-1,-7.5839427E-3,-1.6765812E-1,-1.5417096E-2,-7.5784535E-3,1E0,9.7559327E-1,-7.518239E-3,-4.9501874E-2,-1.3360095E-2,-6.2827915E-2,-7.5663435E-3,-4.3765504E-2,-2.647417E-2,-5.815843E-1,-7.5361733E-3,-1.3045248E0,-3.002113E0,-1.7327194E0,-5.750538E-1,-1.3649547E-1,-1.9137006E-2,-1.2325365E-1,1E0,-1.616481E-1,-7.5846547E-3,-7.562698E-3,9.775423E-1,-9.198637E-3,1E0,1E0,-2.6459955E-2,-4.9579866E-2,-7.5710784E-3,-4.258675E-3,-2.6230147E-2,-2.5910972E-2,-7.577825E-3,8.516964E-1,4.9669135E-1,1.937574E-2,3.1037962E0,-7.506967E-3,-5.069095E-4,-1.6858166E-2,-7.482336E-3,-1.7264992E-3,-1.310297E-2,-1.0424799E-2,-9.754659E-3,-2.0536236E-3,-1.7764796E-2,-1.2031541E-2,-8.984973E-3,-6.8999655E-3,-4.4739665E-3,-2.1221822E-3,8.517722E-3,-1.8316405E-3,2.2568642E-3,4.4874125E-3,-9.659617E-4,3.1161608E-4,-1.0837842E-3,-3.8043621E-3,6.0583767E-3,1.6964733E-4,5.296014E-3,-5.151925E-3,1.402392E-2,2.5403101E-3,3.5201418E-4,8.905365E-3,4.724884E-3,-6.228657E-3,7.1839853E-3,2.3756659E-2,-0E0,3.6091197E-3,-1.5108526E-2,-1.1204481E-3,1.3156682E-2,9.865687E-2,6.955478E-3,2.9629925E-2,1.5472359E-2,3.493893E-2,-2.6639102E-3,1.3897926E-2,5.130094E-2,1.5327166E-2,2.0424215E-2,6.5407704E-4,3.268926E-2,6.568907E-2,1.5877053E-1,4.0711097E-2,2.352992E-2,6.2790713E-3,2.9597959E-2,5.3317184E-3],"split_indices":[5,5,5,2,5,5,3,0,5,2,0,2,1,2,0,5,1,5,2,0,5,0,0,6,5,0,4,3,2,0,4,1,5,0,5,5,5,5,2,3,5,6,5,0,0,5,0,6,6,1,4,0,1,1,1,0,2,1,3,5,0,0,0,0,0,0,0,0,0,0,0,0,0,0,0,0,0,0,0,0,0,0,0,0,0,0,0,0,0,0,0,0,0,0,0,0,0,0,0,0,0,0,0,0,0,0,0,0,0,0,0,0,0,0,0,0,0,0,0],"split_type":[0,0,0,0,0,0,0,0,0,0,0,0,0,0,0,0,0,0,0,0,0,0,0,0,0,0,0,0,0,0,0,0,0,0,0,0,0,0,0,0,0,0,0,0,0,0,0,0,0,0,0,0,0,0,0,0,0,0,0,0,0,0,0,0,0,0,0,0,0,0,0,0,0,0,0,0,0,0,0,0,0,0,0,0,0,0,0,0,0,0,0,0,0,0,0,0,0,0,0,0,0,0,0,0,0,0,0,0,0,0,0,0,0,0,0,0,0,0,0],"sum_hessian":[9.6115E4,7.939436E4,1.6720645E4,2.290548E4,5.648888E4,1.5215413E4,1.5052311E3,4.7967275E3,1.8108752E4,5.5854055E4,6.348214E2,1.4559903E4,6.555105E2,1.3160264E3,1.8920473E2,2.292018E3,2.5047095E3,1.01009296E3,1.709866E4,9.881946E3,4.597211E4,5.6207605E2,7.274538E1,5.7876074E2,1.3981142E4,5.714195E2,8.409099E1,1.1938943E3,1.2213215E2,1.3547992E2,5.3724796E1,5.657467E2,1.7262715E3,2.3678948E3,1.368147E2,2.5527621E2,7.548167E2,5.779265E3,1.1319395E4,7.365557E3,2.5163894E3,2.8771783E4,1.7200326E4,7.007582E0,6.573779E1,1.668472E1,5.6207605E2,3.6747065E3,1.0306436E4,4.6717215E0,5.6674774E2,1.0678221E1,7.3412766E1,1.1665312E3,2.736294E1,3.804116E1,8.409099E1,1.3147559E2,4.0043325E0,2.6695553E1,2.7029245E1,5.6207605E2,3.6706383E0,1.1478444E3,5.7842706E2,1.6862281E3,6.816667E2,6.673888E0,1.3014081E2,9.8106155E1,1.5717006E2,2.612827E2,4.9353403E2,5.667144E3,1.12121315E2,5.7509015E2,1.0744305E4,1.2460786E3,6.1194785E3,1.5837136E3,9.3267584E2,2.202687E4,6.7449126E3,8.832181E2,1.6317108E4,1.3347776E0,5.672805E0,3.336944E0,6.2400852E1,9.677137E0,7.007582E0,3.1126304E3,5.6207605E2,9.744359E3,5.6207605E2,2.3358607E0,2.3358607E0,5.637445E2,3.0032496E0,5.672805E0,5.005416E0,6.573779E1,7.674971E0,1.1525161E3,1.4015164E1,1.4348859E1,1.3014082E1,2.3024914E1,1.5016248E1,7.241168E1,1.1679304E1,1.2079737E2,1.0678221E1,2.3358607E0,1.668472E0,4.338027E0,2.2357525E1,2.202383E1,5.005416E0],"tree_param":{"num_deleted":"0","num_feature":"8","num_nodes":"119","size_leaf_vector":"1"}},{"base_weights":[2.5413407E-5,-2.6382975E-2,1.2541999E-1,-7.416149E-2,-7.0066894E-3,1.02883205E-1,3.529439E-1,-1.5670234E-1,-5.2284732E-2,-4.203143E-3,-2.5312173E-1,1.16784394E-1,-2.05439E-1,3.1226817E-1,6.55065E-1,-8.2676075E-2,-2.2434261E-1,-1.9307801E-1,-4.5676697E-2,5.5839803E-2,-1.7112799E-2,-1.4647612E-2,5.307671E-2,-1.669391E-1,1.2854761E-1,4.4412848E-1,-2.6857603E-1,2.9953495E-1,7.458732E-1,8.826314E-1,4.8769325E-1,-1.2415667E-2,-1.0562393E-1,-2.3444957E-1,-4.8260733E-2,-2.945962E-1,-1.6302943E-1,-8.4219076E-2,-2.6305957E-2,7.811236E-2,-9.318112E-3,-3.2715455E-2,8.981053E-3,1.3357929E-2,8.803278E-2,8.683018E-2,-8.739522E-3,5.7888422E-2,1.5372302E-1,8.7018275E-1,2.8330836E-1,-2.8593433E-1,9.172676E-2,2.9174078E-1,5.168824E-1,9.863922E-1,2.8977048E-1,1.0651274E0,4.0111578E-1,3.894139E-1,1.1838822E0,-4.8160908E-4,-1.6195728E-2,-7.1118833E-3,-1.6462969E-3,-1.2448209E-2,-9.904322E-3,-6.691476E-3,-1.6858252E-3,-1.6885517E-2,-1.1987173E-2,-6.7867013E-3,-9.108962E-3,-4.2530843E-3,-2.017011E-3,8.074485E-3,-1.8103247E-3,3.3592924E-3,5.1411116E-3,-9.176942E-4,2.9605193E-4,-2.5816853E-3,-3.0112595E-4,5.755801E-3,1.6116559E-4,3.8683992E-3,-2.3048345E-3,4.605629E-3,-0E0,-0E0,7.204655E-3,4.4887154E-3,-5.9177764E-3,6.8248226E-3,2.2570936E-2,6.398658E-2,3.5219584E-3,3.811414E-3,2.4119826E-2,-5.0188527E-3,-1.4344478E-2,-7.0819044E-3,6.6524944E-3,1.4672226E-2,-8.566443E-3,3.8129546E-2,-1.9702434E-3,1.8597517E-2,5.263886E-2,7.236837E-3,3.0170396E-2,4.1737277E-2,1.4057492E-1,2.4077812E-2,2.037118E-3,7.781909E-2,1.706544E-2,-1.152094E-2,7.179178E-2],"categories":[],"categories_nodes":[],"categories_segments":[],"categories_sizes":[],"default_left":[0,0,0,0,0,0,0,0,0,0,0,0,0,0,0,0,0,0,0,0,0,0,0,0,0,0,0,0,0,0,0,0,0,0,0,0,0,0,0,0,0,0,0,0,0,0,0,0,0,0,0,0,0,0,0,0,0,0,0,0,0,0,0,0,0,0,0,0,0,0,0,0,0,0,0,0,0,0,0,0,0,0,0,0,0,0,0,0,0,0,0,0,0,0,0,0,0,0,0,0,0,0,0,0,0,0,0,0,0,0,0,0,0,0,0,0,0,0,0],"id":9,"left_children":[1,3,5,7,9,11,13,15,17,19,21,23,25,27,29,31,33,35,37,39,41,-1,43,45,47,49,51,53,55,57,59,61,63,65,67,69,71,73,75,77,79,81,83,85,87,89,-1,91,93,95,97,99,101,103,105,107,109,111,113,115,117,-1,-1,-1,-1,-1,-1,-1,-1,-1,-1,-1,-1,-1,-1,-1,-1,-1,-1,-1,-1,-1,-1,-1,-1,-1,-1,-1,-1,-1,-1,-1,-1,-1,-1,-1,-1,-1,-1,-1,-1,-1,-1,-1,-1,-1,-1,-1,-1,-1,-1,-1,-1,-1,-1,-1,-1,-1,-1],"loss_changes":[3.1829834E2,7.3493225E1,8.566098E1,4.1333755E1,3.895093E1,6.523335E1,1.820877E1,2.397371E1,1.6816029E1,4.3292225E1,7.794037E0,4.8614655E1,2.7026373E1,7.013611E0,6.194092E0,3.6839762E0,4.4197083E0,2.3797684E0,1.2902721E1,1.4350065E1,1.8719852E1,0E0,9.1074005E-2,1.1791039E0,2.4842392E1,3.639266E0,3.7926598E0,1.9598694E0,3.6497822E0,5.9064827E0,6.5507298E0,4.5492458E-1,4.5753574E0,1.1562653E0,1.5024793E-1,2.9453945E-1,2.7209473E-1,1.9789124E-1,2.1405891E1,1.9650116E0,3.4799016E-1,1.4523708E1,1.0499485E1,1.476526E-1,1.3556004E-2,1.02210805E-1,0E0,2.0664116E1,5.2738937E1,4.8021116E0,1.7232821E0,3.388214E-2,2.8828245E-1,1.0499573E0,5.986021E0,4.323063E-1,4.9050224E-1,1.8500504E1,5.665591E-1,4.524106E0,4.8505936E0,0E0,0E0,0E0,0E0,0E0,0E0,0E0,0E0,0E0,0E0,0E0,0E0,0E0,0E0,0E0,0E0,0E0,0E0,0E0,0E0,0E0,0E0,0E0,0E0,0E0,0E0,0E0,0E0,0E0,0E0,0E0,0E0,0E0,0E0,0E0,0E0,0E0,0E0,0E0,0E0,0E0,0E0,0E0,0E0,0E0,0E0,0E0,0E0,0E0,0E0,0E0,0E0,0E0,0E0,0E0,0E0,0E0,0E0],"parents":[2147483647,0,0,1,1,2,2,3,3,4,4,5,5,6,6,7,7,8,8,9,9,10,10,11,11,12,12,13,13,14,14,15,15,16,16,17,17,18,18,19,19,20,20,22,22,23,23,24,24,25,25,26,26,27,27,28,28,29,29,30,30,31,31,32,32,33,33,34,34,35,35,36,36,37,37,38,38,39,39,40,40,41,41,42,42,43,43,44,44,45,45,47,47,48,48,49,49,50,50,51,51,52,52,53,53,54,54,55,55,56,56,57,57,58,58,59,59,60,60],"right_children":[2,4,6,8,10,12,14,16,18,20,22,24,26,28,30,32,34,36,38,40,42,-1,44,46,48,50,52,54,56,58,60,62,64,66,68,70,72,74,76,78,80,82,84,86,88,90,-1,92,94,96,98,100,102,104,106,108,110,112,114,116,118,-1,-1,-1,-1,-1,-1,-1,-1,-1,-1,-1,-1,-1,-1,-1,-1,-1,-1,-1,-1,-1,-1,-1,-1,-1,-1,-1,-1,-1,-1,-1,-1,-1,-1,-1,-1,-1,-1,-1,-1,-1,-1,-1,-1,-1,-1,-1,-1,-1,-1,-1,-1,-1,-1,-1,-1,-1,-1],"split_conditions":[4.668983E-1,-3.2828736E-1,2.8364558E0,-1.3652754E-1,4.5852196E-1,2.6222947E0,-2.2987429E-2,-7.5409086E-3,-1.4473535E0,-1.3646734E-1,-7.5866664E-3,-1.3654342E-1,-7.5253206E-3,3.10147E-1,-6.2827915E-2,-2.4672828E0,-2.647417E-2,-2.4672828E0,-1.3649893E-1,-7.5839427E-3,-1.6765812E-1,-1.4647612E-2,-7.4621313E-3,1E0,9.7559327E-1,-4.9501874E-2,-1.721137E-2,-1.0092835E-1,-7.5653377E-3,-7.552432E-3,1.6572417E-1,-2.647417E-2,-5.985588E-1,-7.5361733E-3,-8.257671E-1,-3.002113E0,-1.2927751E-1,-5.750538E-1,-1.3649547E-1,-1.3649087E-1,-1.2325365E-1,-1.2845623E-1,-1.616481E-1,-7.5350422E-3,-7.343379E-3,7.062004E-1,-8.739522E-3,1E0,1E0,-7.564039E-3,-4.698926E-2,-1.2829068E-1,-7.518239E-3,2.080882E-1,5.853578E-2,5.48926E-1,-1.3628091E-1,-2.695273E-2,-7.5147194E-3,-4.983296E-2,1.8809775E-1,-4.8160908E-4,-1.6195728E-2,-7.1118833E-3,-1.6462969E-3,-1.2448209E-2,-9.904322E-3,-6.691476E-3,-1.6858252E-3,-1.6885517E-2,-1.1987173E-2,-6.7867013E-3,-9.108962E-3,-4.2530843E-3,-2.017011E-3,8.074485E-3,-1.8103247E-3,3.3592924E-3,5.1411116E-3,-9.176942E-4,2.9605193E-4,-2.5816853E-3,-3.0112595E-4,5.755801E-3,1.6116559E-4,3.8683992E-3,-2.3048345E-3,4.605629E-3,-0E0,-0E0,7.204655E-3,4.4887154E-3,-5.9177764E-3,6.8248226E-3,2.2570936E-2,6.398658E-2,3.5219584E-3,3.811414E-3,2.4119826E-2,-5.0188527E-3,-1.4344478E-2,-7.0819044E-3,6.6524944E-3,1.4672226E-2,-8.566443E-3,3.8129546E-2,-1.9702434E-3,1.8597517E-2,5.263886E-2,7.236837E-3,3.0170396E-2,4.1737277E-2,1.4057492E-1,2.4077812E-2,2.037118E-3,7.781909E-2,1.706544E-2,-1.152094E-2,7.179178E-2],"split_indices":[5,5,5,2,5,5,1,0,5,2,0,2,0,3,2,5,1,5,2,0,5,0,0,6,5,4,3,2,0,0,3,1,5,0,5,5,2,5,2,2,5,2,5,0,0,5,0,6,6,0,4,2,0,3,2,3,2,4,0,4,1,0,0,0,0,0,0,0,0,0,0,0,0,0,0,0,0,0,0,0,0,0,0,0,0,0,0,0,0,0,0,0,0,0,0,0,0,0,0,0,0,0,0,0,0,0,0,0,0,0,0,0,0,0,0,0,0,0,0],"split_type":[0,0,0,0,0,0,0,0,0,0,0,0,0,0,0,0,0,0,0,0,0,0,0,0,0,0,0,0,0,0,0,0,0,0,0,0,0,0,0,0,0,0,0,0,0,0,0,0,0,0,0,0,0,0,0,0,0,0,0,0,0,0,0,0,0,0,0,0,0,0,0,0,0,0,0,0,0,0,0,0,0,0,0,0,0,0,0,0,0,0,0,0,0,0,0,0,0,0,0,0,0,0,0,0,0,0,0,0,0,0,0,0,0,0,0,0,0,0,0],"sum_hessian":[9.6115E4,7.939436E4,1.6720645E4,2.290548E4,5.648888E4,1.5215413E4,1.5052311E3,4.7967275E3,1.8108752E4,5.5854055E4,6.348214E2,1.4559903E4,6.555105E2,1.3287068E3,1.7652434E2,2.292018E3,2.5047095E3,8.098763E2,1.7298877E4,9.881946E3,4.597211E4,5.6207605E2,7.274538E1,5.7876074E2,1.3981142E4,5.7395435E1,5.9811505E2,1.2926677E3,3.6038994E1,7.274538E1,1.0377896E2,5.657467E2,1.7262715E3,2.3678948E3,1.368147E2,1.8219714E2,6.2767914E2,5.7832695E3,1.1515606E4,7.365557E3,2.5163894E3,2.8771783E4,1.7200326E4,3.6038994E1,3.6706383E1,1.668472E1,5.6207605E2,3.6747065E3,1.0306436E4,1.4348859E1,4.3046577E1,5.710858E2,2.7029245E1,1.2506223E3,4.2045494E1,2.269122E1,1.3347776E1,5.1722633E1,2.1022747E1,9.243335E1,1.134561E1,5.6207605E2,3.6706383E0,1.1465096E3,5.7976184E2,1.6862281E3,6.816667E2,1.7685802E1,1.191289E2,9.8106155E1,8.409099E1,2.6428595E2,3.633932E2,5.6711484E3,1.12121315E2,5.754238E2,1.0940183E4,5.112581E3,2.2529758E3,1.5837136E3,9.3267584E2,1.6835307E4,1.1936475E4,8.832181E2,1.6317108E4,1.8019497E1,1.8019497E1,3.503791E1,1.668472E0,6.3401937E0,1.0344526E1,3.1126304E3,5.6207605E2,9.744359E3,5.6207605E2,9.009748E0,5.3391104E0,2.202383E1,2.1022747E1,4.0043325E0,5.670815E2,3.336944E0,2.3692303E1,1.2466179E3,4.0043325E0,2.9031412E1,1.3014082E1,3.0032496E0,1.968797E1,1.0344526E1,3.0032496E0,4.705091E1,4.6717215E0,1.668472E1,4.338027E0,2.3358607E0,9.009749E1,1.668472E0,9.677137E0],"tree_param":{"num_deleted":"0","num_feature":"8","num_nodes":"119","size_leaf_vector":"1"}},{"base_weights":[2.9533285E-5,-2.506576E-2,1.1918945E-1,-7.046066E-2,-6.656046E-3,9.774641E-2,3.3566815E-1,-1.4888623E-1,-4.967435E-2,-3.9925217E-3,-2.4047111E-1,1.1094699E-1,-1.9502898E-1,2.9677954E-1,6.2450063E-1,-7.8559905E-2,-2.1314374E-1,-1.6954514E-1,-4.2577706E-2,5.3049117E-2,-1.6256984E-2,-1.3916532E-2,5.050643E-2,-1.585947E-1,1.22122586E-1,4.238133E-1,-2.551886E-1,2.84587E-1,7.1191776E-1,8.415296E-1,4.648371E-1,-1.1833132E-2,-1.003507E-1,-2.2273864E-1,-4.5944765E-2,-2.592526E-1,-1.3877124E-1,-7.9955064E-2,-2.3479996E-2,7.420857E-2,-8.850467E-3,-3.2212153E-2,6.9632567E-3,-4.310999E-2,6.2480677E-2,8.2615875E-2,-8.303321E-3,5.499225E-2,1.460402E-1,8.313977E-1,2.6989058E-1,-2.716802E-1,8.694671E-2,2.7715462E-1,4.9176216E-1,9.402905E-1,2.7823764E-1,9.8254675E-1,2.802868E-1,1.3560938E0,3.9264163E-1,-4.575714E-4,-1.5559318E-2,-6.7565986E-3,-1.5641236E-3,-1.1826168E-2,-9.409831E-3,-5.066599E-3,-1.2797718E-3,-1.6049761E-2,-1.0914732E-2,-5.868962E-3,-7.680998E-3,-4.045286E-3,-2.1678545E-3,7.6895505E-3,-1.6495591E-3,1.976258E-3,4.062352E-3,-8.7183836E-4,2.8126518E-4,-2.5948293E-3,-2.6963573E-4,7.543057E-5,2.635214E-3,5.0340514E-3,-5.0973664E-3,1.0967238E-2,2.0854024E-3,8.760781E-4,9.482086E-3,4.264352E-3,-5.622413E-3,6.483617E-3,2.1444393E-2,8.832633E-3,6.741442E-2,3.6291205E-3,2.2968596E-2,-4.818055E-3,-1.3628517E-2,-6.8094553E-3,6.333341E-3,1.3939202E-2,-8.2237115E-3,3.628655E-2,-1.8787611E-3,7.209861E-2,3.9114326E-2,6.906891E-3,2.9038697E-2,6.2227577E-2,2.0659255E-2,-4.362193E-3,2.3775322E-2,-1.3971247E-2,8.371162E-2,-3.7988555E-3,2.3518102E-2],"categories":[],"categories_nodes":[],"categories_segments":[],"categories_sizes":[],"default_left":[0,0,0,0,0,0,0,0,0,0,0,0,0,0,0,0,0,0,0,0,0,0,0,0,0,0,0,0,0,0,0,0,0,0,0,0,0,0,0,0,0,0,0,0,0,0,0,0,0,0,0,0,0,0,0,0,0,0,0,0,0,0,0,0,0,0,0,0,0,0,0,0,0,0,0,0,0,0,0,0,0,0,0,0,0,0,0,0,0,0,0,0,0,0,0,0,0,0,0,0,0,0,0,0,0,0,0,0,0,0,0,0,0,0,0,0,0,0,0],"id":10,"left_children":[1,3,5,7,9,11,13,15,17,19,21,23,25,27,29,31,33,35,37,39,41,-1,43,45,47,49,51,53,55,57,59,61,63,65,67,69,71,73,75,77,79,81,83,85,87,89,-1,91,93,95,97,99,101,103,105,107,109,111,113,115,117,-1,-1,-1,-1,-1,-1,-1,-1,-1,-1,-1,-1,-1,-1,-1,-1,-1,-1,-1,-1,-1,-1,-1,-1,-1,-1,-1,-1,-1,-1,-1,-1,-1,-1,-1,-1,-1,-1,-1,-1,-1,-1,-1,-1,-1,-1,-1,-1,-1,-1,-1,-1,-1,-1,-1,-1,-1,-1],"loss_changes":[2.8743317E2,6.63431E1,7.754509E1,3.7314392E1,3.5154915E1,5.88217E1,1.6640976E1,2.1634987E1,1.5377182E1,3.9072548E1,7.041214E0,4.3877365E1,2.4532728E1,6.428177E0,5.6296997E0,3.3217087E0,3.9827042E0,2.7154942E0,1.2193892E1,1.295149E1,1.7035E1,0E0,8.7298155E-2,1.0669432E0,2.242154E1,3.32901E0,3.422512E0,1.7788086E0,3.2848911E0,5.434887E0,6.0346375E0,4.200896E-1,4.128521E0,1.0409698E0,1.4004356E-1,5.240841E-1,1.9494724E-1,1.8516922E-1,1.907983E1,1.7830238E0,3.141739E-1,1.4381081E1,4.665651E0,7.813719E-2,1.8220994E-1,9.916628E-2,0E0,1.8652168E1,4.7607986E1,4.8038635E0,1.5601974E0,2.6123047E-2,2.6472098E-1,9.579544E-1,5.427203E0,5.274849E-1,4.5601654E-1,8.03117E0,1.2534068E0,4.4265623E0,3.6604376E0,0E0,0E0,0E0,0E0,0E0,0E0,0E0,0E0,0E0,0E0,0E0,0E0,0E0,0E0,0E0,0E0,0E0,0E0,0E0,0E0,0E0,0E0,0E0,0E0,0E0,0E0,0E0,0E0,0E0,0E0,0E0,0E0,0E0,0E0,0E0,0E0,0E0,0E0,0E0,0E0,0E0,0E0,0E0,0E0,0E0,0E0,0E0,0E0,0E0,0E0,0E0,0E0,0E0,0E0,0E0,0E0,0E0,0E0],"parents":[2147483647,0,0,1,1,2,2,3,3,4,4,5,5,6,6,7,7,8,8,9,9,10,10,11,11,12,12,13,13,14,14,15,15,16,16,17,17,18,18,19,19,20,20,22,22,23,23,24,24,25,25,26,26,27,27,28,28,29,29,30,30,31,31,32,32,33,33,34,34,35,35,36,36,37,37,38,38,39,39,40,40,41,41,42,42,43,43,44,44,45,45,47,47,48,48,49,49,50,50,51,51,52,52,53,53,54,54,55,55,56,56,57,57,58,58,59,59,60,60],"right_children":[2,4,6,8,10,12,14,16,18,20,22,24,26,28,30,32,34,36,38,40,42,-1,44,46,48,50,52,54,56,58,60,62,64,66,68,70,72,74,76,78,80,82,84,86,88,90,-1,92,94,96,98,100,102,104,106,108,110,112,114,116,118,-1,-1,-1,-1,-1,-1,-1,-1,-1,-1,-1,-1,-1,-1,-1,-1,-1,-1,-1,-1,-1,-1,-1,-1,-1,-1,-1,-1,-1,-1,-1,-1,-1,-1,-1,-1,-1,-1,-1,-1,-1,-1,-1,-1,-1,-1,-1,-1,-1,-1,-1,-1,-1,-1,-1,-1,-1,-1],"split_conditions":[4.668983E-1,-3.2828736E-1,2.8364558E0,-1.3652754E-1,4.5852196E-1,2.6222947E0,-2.2987429E-2,-7.5409086E-3,-1.3045248E0,-1.3646734E-1,-7.5866664E-3,-1.3654342E-1,-7.5253206E-3,3.10147E-1,-6.2827915E-2,-2.4672828E0,-2.647417E-2,-2.232963E0,-1.3649893E-1,-7.5839427E-3,-1.8114999E-1,-1.3916532E-2,-7.5784535E-3,1E0,9.7559327E-1,-4.9501874E-2,-1.721137E-2,-1.0092835E-1,-7.5653377E-3,5.48926E-1,-4.980141E-2,-2.647417E-2,-5.985588E-1,-7.5361733E-3,-5.815843E-1,-3.002113E0,-1.2993519E-1,-2.6473634E-2,-1.3649547E-1,-1.9137006E-2,-1.2325365E-1,-1.2845623E-1,-1.616934E-2,-7.5846547E-3,-7.56165E-3,1.4001772E0,-8.303321E-3,1E0,1E0,-4.9692247E-2,-4.698926E-2,-1.2829068E-1,-7.518239E-3,2.080882E-1,5.853578E-2,-4.980769E-2,-1.3628091E-1,-7.562698E-3,-4.899572E-2,-1.1434457E-2,-4.962041E-2,-4.575714E-4,-1.5559318E-2,-6.7565986E-3,-1.5641236E-3,-1.1826168E-2,-9.409831E-3,-5.066599E-3,-1.2797718E-3,-1.6049761E-2,-1.0914732E-2,-5.868962E-3,-7.680998E-3,-4.045286E-3,-2.1678545E-3,7.6895505E-3,-1.6495591E-3,1.976258E-3,4.062352E-3,-8.7183836E-4,2.8126518E-4,-2.5948293E-3,-2.6963573E-4,7.543057E-5,2.635214E-3,5.0340514E-3,-5.0973664E-3,1.0967238E-2,2.0854024E-3,8.760781E-4,9.482086E-3,4.264352E-3,-5.622413E-3,6.483617E-3,2.1444393E-2,8.832633E-3,6.741442E-2,3.6291205E-3,2.2968596E-2,-4.818055E-3,-1.3628517E-2,-6.8094553E-3,6.333341E-3,1.3939202E-2,-8.2237115E-3,3.628655E-2,-1.8787611E-3,7.209861E-2,3.9114326E-2,6.906891E-3,2.9038697E-2,6.2227577E-2,2.0659255E-2,-4.362193E-3,2.3775322E-2,-1.3971247E-2,8.371162E-2,-3.7988555E-3,2.3518102E-2],"split_indices":[5,5,5,2,5,5,1,0,5,2,0,2,0,3,2,5,1,5,2,0,5,0,0,6,5,4,3,2,0,3,4,1,5,0,5,5,2,1,2,3,5,2,2,0,0,5,0,6,6,4,4,2,0,3,2,4,2,0,4,3,4,0,0,0,0,0,0,0,0,0,0,0,0,0,0,0,0,0,0,0,0,0,0,0,0,0,0,0,0,0,0,0,0,0,0,0,0,0,0,0,0,0,0,0,0,0,0,0,0,0,0,0,0,0,0,0,0,0,0],"split_type":[0,0,0,0,0,0,0,0,0,0,0,0,0,0,0,0,0,0,0,0,0,0,0,0,0,0,0,0,0,0,0,0,0,0,0,0,0,0,0,0,0,0,0,0,0,0,0,0,0,0,0,0,0,0,0,0,0,0,0,0,0,0,0,0,0,0,0,0,0,0,0,0,0,0,0,0,0,0,0,0,0,0,0,0,0,0,0,0,0,0,0,0,0,0,0,0,0,0,0,0,0,0,0,0,0,0,0,0,0,0,0,0,0,0,0,0,0,0,0],"sum_hessian":[9.6115E4,7.939436E4,1.6720645E4,2.290548E4,5.648888E4,1.5215413E4,1.5052311E3,4.7967275E3,1.8108752E4,5.5854055E4,6.348214E2,1.4559903E4,6.555105E2,1.3287068E3,1.7652434E2,2.292018E3,2.5047095E3,1.01009296E3,1.709866E4,9.881946E3,4.597211E4,5.6207605E2,7.274538E1,5.7876074E2,1.3981142E4,5.7395435E1,5.9811505E2,1.2926677E3,3.6038994E1,7.274538E1,1.0377896E2,5.657467E2,1.7262715E3,2.3678948E3,1.368147E2,2.5527621E2,7.548167E2,5.779265E3,1.1319395E4,7.365557E3,2.5163894E3,2.7251137E4,1.8720973E4,7.007582E0,6.573779E1,1.668472E1,5.6207605E2,3.6747065E3,1.0306436E4,1.4348859E1,4.3046577E1,5.710858E2,2.7029245E1,1.2506223E3,4.2045494E1,2.269122E1,1.3347776E1,5.7395435E1,1.5349942E1,6.3401937E0,9.743877E1,5.6207605E2,3.6706383E0,1.1465096E3,5.7976184E2,1.6862281E3,6.816667E2,3.437052E1,1.0244418E2,9.8106155E1,1.5717006E2,3.156749E2,4.391418E2,5.629103E3,1.5016248E2,5.7509015E2,1.0744305E4,1.2460786E3,6.1194785E3,1.5837136E3,9.3267584E2,1.5713427E4,1.153771E4,1.672922E4,1.9917509E3,1.3347776E0,5.672805E0,6.0064993E0,5.9731297E1,1.1679304E1,5.005416E0,3.1126304E3,5.6207605E2,9.744359E3,5.6207605E2,7.007582E0,7.3412766E0,2.202383E1,2.1022747E1,4.0043325E0,5.670815E2,3.336944E0,2.3692303E1,1.2466179E3,4.0043325E0,2.9031412E1,1.3014082E1,3.336944E0,1.9354275E1,1.0344526E1,3.0032496E0,3.8374855E1,1.902058E1,5.3391104E0,1.0010832E1,1.0010831E0,5.3391104E0,1.368147E1,8.375729E1],"tree_param":{"num_deleted":"0","num_feature":"8","num_nodes":"119","size_leaf_vector":"1"}},{"base_weights":[3.220128E-5,-2.3814213E-2,1.1326237E-1,-6.694451E-2,-6.3228128E-3,9.286781E-2,3.1915298E-1,-1.4146003E-1,-4.7194257E-2,-3.7925327E-3,-2.284333E-1,1.054023E-1,-1.8512686E-1,2.8060102E-1,5.8389306E-1,-7.4649066E-2,-2.0250355E-1,-1.611228E-1,-4.0449124E-2,5.0397716E-2,-1.5444029E-2,-1.3221941E-2,4.822505E-2,-1.5064417E-1,1.1601872E-1,4.606662E-1,-2.3781486E-1,2.6598245E-1,4.1937107E-1,6.859255E-1,3.1693423E-1,-1.12785585E-2,-9.534088E-2,-2.1161279E-1,-4.3729857E-2,-2.464147E-1,-1.3185722E-1,2.3058362E-2,-5.0934486E-2,7.0499636E-2,-8.406192E-3,-3.0601835E-2,6.615507E-3,1.012165E-2,8.1723E-2,7.9353526E-2,-7.888893E-3,5.224091E-2,1.3874139E-1,9.325326E-1,2.997493E-1,-2.5576216E-1,9.326015E-2,2.7044675E-1,6.931012E-2,8.073497E-1,3.3977446E-1,6.1514366E-1,2.4026256E0,1.7056835E-1,4.4668263E-1,-1.6914155E-2,-4.476992E-4,-6.416344E-3,-1.4800793E-3,-1.123521E-2,-8.94003E-3,-8.81919E-3,-1.7435715E-3,-1.5255369E-2,-1.0372447E-2,-7.791657E-3,-5.933622E-3,-2.1571575E-3,9.52731E-3,-3.9392947E-3,-1.1115865E-3,3.0136928E-3,4.6811583E-3,-6.789787E-4,6.997225E-4,-8.977783E-4,-3.4513238E-3,7.165933E-5,2.5035194E-3,3.869293E-3,-2.002708E-3,4.3694684E-3,-0E0,8.35729E-4,9.086927E-3,4.0512024E-3,-5.341792E-3,6.159469E-3,2.037408E-2,9.489717E-2,2.2948654E-3,6.288711E-3,2.4020627E-2,-1.1701131E-3,-1.2940764E-2,9.068153E-3,-1.4367214E-3,1.32255545E-2,2.9622603E-2,-1.6530078E-3,1.5200667E-2,3.058255E-2,1.106979E-1,2.588503E-3,1.9982034E-2,2.781801E-2,5.834925E-2,1.4777765E-1,3.867805E-2,2.1637352E-2,4.953369E-3,2.5933767E-2,3.98211E-3],"categories":[],"categories_nodes":[],"categories_segments":[],"categories_sizes":[],"default_left":[0,0,0,0,0,0,0,0,0,0,0,0,0,0,0,0,0,0,0,0,0,0,0,0,0,0,0,0,0,0,0,0,0,0,0,0,0,0,0,0,0,0,0,0,1,0,0,0,0,0,0,0,1,0,0,0,0,0,1,0,0,0,0,0,0,0,0,0,0,0,0,0,0,0,0,0,0,0,0,0,0,0,0,0,0,0,0,0,0,0,0,0,0,0,0,0,0,0,0,0,0,0,0,0,0,0,0,0,0,0,0,0,0,0,0,0,0,0,0],"id":11,"left_children":[1,3,5,7,9,11,13,15,17,19,21,23,25,27,29,31,33,35,37,39,41,-1,43,45,47,49,51,53,55,57,59,61,63,65,67,69,71,73,75,77,79,81,83,85,87,89,-1,91,93,95,97,99,101,103,105,107,109,111,113,115,117,-1,-1,-1,-1,-1,-1,-1,-1,-1,-1,-1,-1,-1,-1,-1,-1,-1,-1,-1,-1,-1,-1,-1,-1,-1,-1,-1,-1,-1,-1,-1,-1,-1,-1,-1,-1,-1,-1,-1,-1,-1,-1,-1,-1,-1,-1,-1,-1,-1,-1,-1,-1,-1,-1,-1,-1,-1,-1],"loss_changes":[2.595377E2,5.9888836E1,7.0144165E1,3.3685936E1,3.172332E1,5.3033447E1,1.5122681E1,1.9524109E1,1.3890011E1,3.5264027E1,6.3679314E0,3.9594894E1,2.2425402E1,2.4916687E0,4.863205E0,2.9949837E0,3.589241E0,2.4534874E0,1.1390604E1,1.1689156E1,1.5374821E1,0E0,8.411588E-2,9.7159195E-1,2.0236603E1,3.3725023E0,3.651535E0,9.9640656E-1,3.4135113E0,1.48041E1,9.0134907E-1,3.9305788E-1,3.725956E0,9.3704224E-1,1.3467053E-1,4.715557E-1,1.9298172E-1,2.6883423E1,1.1722061E1,1.7208328E0,2.9188138E-1,1.3232647E1,4.2109118E0,1.3184074E-1,1.3196766E-2,9.053423E-2,0E0,1.6836136E1,4.297615E1,1.0000313E1,1.0955687E0,3.7512589E-1,3.6118695E-1,1.9891129E0,7.186121E-1,3.874362E0,1.7292337E0,3.4757957E0,1.8484592E0,4.2312908E-1,6.395116E-1,0E0,0E0,0E0,0E0,0E0,0E0,0E0,0E0,0E0,0E0,0E0,0E0,0E0,0E0,0E0,0E0,0E0,0E0,0E0,0E0,0E0,0E0,0E0,0E0,0E0,0E0,0E0,0E0,0E0,0E0,0E0,0E0,0E0,0E0,0E0,0E0,0E0,0E0,0E0,0E0,0E0,0E0,0E0,0E0,0E0,0E0,0E0,0E0,0E0,0E0,0E0,0E0,0E0,0E0,0E0,0E0,0E0,0E0],"parents":[2147483647,0,0,1,1,2,2,3,3,4,4,5,5,6,6,7,7,8,8,9,9,10,10,11,11,12,12,13,13,14,14,15,15,16,16,17,17,18,18,19,19,20,20,22,22,23,23,24,24,25,25,26,26,27,27,28,28,29,29,30,30,31,31,32,32,33,33,34,34,35,35,36,36,37,37,38,38,39,39,40,40,41,41,42,42,43,43,44,44,45,45,47,47,48,48,49,49,50,50,51,51,52,52,53,53,54,54,55,55,56,56,57,57,58,58,59,59,60,60],"right_children":[2,4,6,8,10,12,14,16,18,20,22,24,26,28,30,32,34,36,38,40,42,-1,44,46,48,50,52,54,56,58,60,62,64,66,68,70,72,74,76,78,80,82,84,86,88,90,-1,92,94,96,98,100,102,104,106,108,110,112,114,116,118,-1,-1,-1,-1,-1,-1,-1,-1,-1,-1,-1,-1,-1,-1,-1,-1,-1,-1,-1,-1,-1,-1,-1,-1,-1,-1,-1,-1,-1,-1,-1,-1,-1,-1,-1,-1,-1,-1,-1,-1,-1,-1,-1,-1,-1,-1,-1,-1,-1,-1,-1,-1,-1,-1,-1,-1,-1,-1],"split_conditions":[4.668983E-1,-3.2828736E-1,2.8364558E0,-1.3652754E-1,4.5852196E-1,2.6222947E0,2.045004E-3,-7.5409086E-3,-1.3045248E0,-1.3646734E-1,-7.5866664E-3,-1.3654342E-1,-7.534288E-3,-1.1388175E-1,-7.564751E-3,-2.4672828E0,-2.647417E-2,-2.232963E0,-1.1652424E0,-7.5839427E-3,-1.8114999E-1,-1.3221941E-2,-7.4621313E-3,1E0,9.7559327E-1,-2.6361573E-2,-1.721137E-2,-1.3360095E-2,-4.97963E-2,-7.5663435E-3,-4.3765504E-2,-3.002113E0,-5.815843E-1,-7.5361733E-3,-1.3045248E0,-3.002113E0,-1.7327194E0,-1.3566363E-1,-6.037114E-1,-1.3649087E-1,1.4576361E-2,1E0,-1.616934E-2,-7.5396514E-3,8.292177E-2,1.4001772E0,-7.888893E-3,1E0,1E0,-7.564039E-3,-4.698926E-2,-7.518239E-3,2.045004E-3,-1.721137E-2,-1.28863E-1,-1.1434457E-2,-7.5865407E-3,4.9669135E-1,1.937574E-2,3.1037962E0,-7.506967E-3,-1.6914155E-2,-4.476992E-4,-6.416344E-3,-1.4800793E-3,-1.123521E-2,-8.94003E-3,-8.81919E-3,-1.7435715E-3,-1.5255369E-2,-1.0372447E-2,-7.791657E-3,-5.933622E-3,-2.1571575E-3,9.52731E-3,-3.9392947E-3,-1.1115865E-3,3.0136928E-3,4.6811583E-3,-6.789787E-4,6.997225E-4,-8.977783E-4,-3.4513238E-3,7.165933E-5,2.5035194E-3,3.869293E-3,-2.002708E-3,4.3694684E-3,-0E0,8.35729E-4,9.086927E-3,4.0512024E-3,-5.341792E-3,6.159469E-3,2.037408E-2,9.489717E-2,2.2948654E-3,6.288711E-3,2.4020627E-2,-1.1701131E-3,-1.2940764E-2,9.068153E-3,-1.4367214E-3,1.32255545E-2,2.9622603E-2,-1.6530078E-3,1.5200667E-2,3.058255E-2,1.106979E-1,2.588503E-3,1.9982034E-2,2.781801E-2,5.834925E-2,1.4777765E-1,3.867805E-2,2.1637352E-2,4.953369E-3,2.5933767E-2,3.98211E-3],"split_indices":[5,5,5,2,5,5,3,0,5,2,0,2,0,2,0,5,1,5,5,0,5,0,0,6,5,1,3,3,4,0,4,5,5,0,5,5,5,2,5,2,5,6,2,0,3,5,0,6,6,0,4,0,3,3,2,3,0,1,3,5,0,0,0,0,0,0,0,0,0,0,0,0,0,0,0,0,0,0,0,0,0,0,0,0,0,0,0,0,0,0,0,0,0,0,0,0,0,0,0,0,0,0,0,0,0,0,0,0,0,0,0,0,0,0,0,0,0,0,0],"split_type":[0,0,0,0,0,0,0,0,0,0,0,0,0,0,0,0,0,0,0,0,0,0,0,0,0,0,0,0,0,0,0,0,0,0,0,0,0,0,0,0,0,0,0,0,0,0,0,0,0,0,0,0,0,0,0,0,0,0,0,0,0,0,0,0,0,0,0,0,0,0,0,0,0,0,0,0,0,0,0,0,0,0,0,0,0,0,0,0,0,0,0,0,0,0,0,0,0,0,0,0,0,0,0,0,0,0,0,0,0,0,0,0,0,0,0,0,0,0,0],"sum_hessian":[9.6115E4,7.939436E4,1.6720645E4,2.290548E4,5.648888E4,1.5215413E4,1.5052311E3,4.7967275E3,1.8108752E4,5.5854055E4,6.348214E2,1.4559903E4,6.555105E2,1.3160264E3,1.8920473E2,2.292018E3,2.5047095E3,1.01009296E3,1.709866E4,9.881946E3,4.597211E4,5.6207605E2,7.274538E1,5.7876074E2,1.3981142E4,4.8719383E1,6.067911E2,1.1938943E3,1.2213215E2,1.3547992E2,5.3724796E1,5.657467E2,1.7262715E3,2.3678948E3,1.368147E2,2.5527621E2,7.548167E2,2.4214917E3,1.4677168E4,7.365557E3,2.5163894E3,2.7251137E4,1.8720973E4,3.6038994E1,3.6706383E1,1.668472E1,5.6207605E2,3.6747065E3,1.0306436E4,1.1011915E1,3.7707466E1,5.760912E2,3.0699884E1,1.1665312E3,2.736294E1,1.902058E1,1.0311157E2,1.3147559E2,4.0043325E0,2.6695553E1,2.7029245E1,2.6695552E0,5.6307715E2,1.1478444E3,5.7842706E2,1.6862281E3,6.816667E2,6.673888E0,1.3014081E2,9.8106155E1,1.5717006E2,2.612827E2,4.9353403E2,1.7356149E3,6.8587665E2,7.4464023E3,7.2307656E3,5.112581E3,2.2529758E3,2.0482163E3,4.6817325E2,2.0506225E4,6.7449126E3,1.672922E4,1.9917509E3,1.601733E1,2.0021664E1,3.3703133E1,3.0032496E0,1.1679304E1,5.005416E0,3.1126304E3,5.6207605E2,9.744359E3,5.6207605E2,4.6717215E0,6.3401937E0,2.0355358E1,1.7352108E1,8.008665E0,5.680825E2,1.8019497E1,1.26803875E1,1.1475107E3,1.902058E1,1.9354275E1,8.008665E0,1.8019497E1,1.0010831E0,1.8353191E1,8.475838E1,1.2079737E2,1.0678221E1,2.3358607E0,1.668472E0,4.338027E0,2.2357525E1,2.202383E1,5.005416E0],"tree_param":{"num_deleted":"0","num_feature":"8","num_nodes":"119","size_leaf_vector":"1"}},{"base_weights":[3.720984E-5,-2.262535E-2,1.0764636E-1,-6.360418E-2,-6.006381E-3,8.823548E-2,3.0360323E-1,-1.34406E-1,-4.4837974E-2,-3.6025306E-3,-2.170109E-1,1.00134745E-1,-1.7566332E-1,2.6787153E-1,5.689701E-1,-7.093417E-2,-1.9239661E-1,-1.5312041E-1,-3.8426824E-2,4.7879115E-2,-1.4671757E-2,-1.2562017E-2,4.593144E-2,-1.4309119E-1,1.1021995E-1,4.40499E-1,-2.25943E-1,2.5688338E-1,6.756824E-1,7.739226E-1,4.1833603E-1,-1.0754087E-2,-9.05813E-2,-2.0104277E-1,-4.165629E-2,-2.3421349E-1,-1.2528914E-1,2.190642E-2,-4.8388444E-2,6.6976376E-2,-7.983888E-3,-2.8119689E-2,7.817734E-3,-4.372408E-2,5.7498984E-2,7.622967E-2,-7.4951476E-3,4.962715E-2,1.3180739E-1,8.9441353E-1,2.8567407E-1,-2.4300717E-1,8.868015E-2,2.501637E-1,4.4444758E-1,9.2839265E-1,2.5723818E-1,9.079462E-1,2.4179308E-1,3.2860035E-1,1.0554833E0,-1.6298914E-2,-4.2535388E-4,-6.0958057E-3,-1.406203E-3,-1.0673782E-2,-8.493682E-3,-8.435693E-3,-1.6570578E-3,-1.4500298E-2,-9.857103E-3,-5.247608E-3,-6.9704703E-3,-2.049362E-3,9.051638E-3,-3.7423566E-3,-1.0560149E-3,1.7269378E-3,3.6779214E-3,-1.1849824E-4,-1.4019146E-3,-8.3215954E-4,-3.278783E-3,5.2676387E-3,1.2630316E-4,4.779552E-3,-5.045165E-3,1.2764803E-2,2.0742237E-3,-6.78037E-5,6.426245E-3,3.8487073E-3,-5.0751767E-3,5.8515277E-3,1.9357184E-2,9.09889E-2,2.1957553E-3,5.9889993E-3,2.2885041E-2,2.8527094E-4,-1.2261083E-2,9.313391E-3,-6.13358E-4,1.2668023E-2,2.2880717E-3,3.332534E-2,-2.7995922E-3,6.2639676E-2,3.3166867E-2,6.2434627E-3,2.7155606E-2,5.5473723E-2,1.3197604E-2,-5.3499746E-3,2.1486044E-2,7.031708E-2,1.4221507E-2,-1.2765668E-2,6.4679705E-2],"categories":[],"categories_nodes":[],"categories_segments":[],"categories_sizes":[],"default_left":[0,0,0,0,0,0,0,0,0,0,0,0,0,0,0,0,0,0,0,0,0,0,0,0,0,0,0,0,0,0,0,0,0,0,0,0,0,0,0,0,0,0,0,0,0,0,0,0,0,0,0,0,0,0,0,0,0,0,0,0,0,0,0,0,0,0,0,0,0,0,0,0,0,0,0,0,0,0,0,0,0,0,0,0,0,0,0,0,0,0,0,0,0,0,0,0,0,0,0,0,0,0,0,0,0,0,0,0,0,0,0,0,0,0,0,0,0,0,0],"id":12,"left_children":[1,3,5,7,9,11,13,15,17,19,21,23,25,27,29,31,33,35,37,39,41,-1,43,45,47,49,51,53,55,57,59,61,63,65,67,69,71,73,75,77,79,81,83,85,87,89,-1,91,93,95,97,99,101,103,105,107,109,111,113,115,117,-1,-1,-1,-1,-1,-1,-1,-1,-1,-1,-1,-1,-1,-1,-1,-1,-1,-1,-1,-1,-1,-1,-1,-1,-1,-1,-1,-1,-1,-1,-1,-1,-1,-1,-1,-1,-1,-1,-1,-1,-1,-1,-1,-1,-1,-1,-1,-1,-1,-1,-1,-1,-1,-1,-1,-1,-1,-1],"loss_changes":[2.344089E2,5.4062946E1,6.3538055E1,3.0411476E1,2.863014E1,4.779264E1,1.4046005E1,1.7619362E1,1.254702E1,3.1827057E1,5.754694E0,3.5730133E1,2.0417063E1,5.6917114E0,5.037693E0,2.700078E0,3.2331085E0,2.2166653E0,1.0280897E1,1.054986E1,1.3906225E1,0E0,8.037251E-2,8.849325E-1,1.8264572E1,3.1206245E0,3.3000813E0,1.4536362E0,3.2417336E0,4.9248543E0,5.5054817E0,3.6521167E-1,3.3619852E0,8.433914E-1,1.2332657E-1,4.241705E-1,1.779747E-1,2.426581E1,1.0578815E1,1.5594559E0,2.8031024E-1,1.2359055E1,8.866953E0,7.396451E-2,1.711313E-1,8.4644526E-2,0E0,1.5196946E1,3.8794846E1,9.187345E0,9.9207044E-1,3.4319305E-1,3.3196723E-1,7.782974E-1,4.881895E0,7.562008E-1,4.083156E-1,7.148548E0,1.1499554E0,3.8787231E0,4.2873487E0,0E0,0E0,0E0,0E0,0E0,0E0,0E0,0E0,0E0,0E0,0E0,0E0,0E0,0E0,0E0,0E0,0E0,0E0,0E0,0E0,0E0,0E0,0E0,0E0,0E0,0E0,0E0,0E0,0E0,0E0,0E0,0E0,0E0,0E0,0E0,0E0,0E0,0E0,0E0,0E0,0E0,0E0,0E0,0E0,0E0,0E0,0E0,0E0,0E0,0E0,0E0,0E0,0E0,0E0,0E0,0E0,0E0,0E0],"parents":[2147483647,0,0,1,1,2,2,3,3,4,4,5,5,6,6,7,7,8,8,9,9,10,10,11,11,12,12,13,13,14,14,15,15,16,16,17,17,18,18,19,19,20,20,22,22,23,23,24,24,25,25,26,26,27,27,28,28,29,29,30,30,31,31,32,32,33,33,34,34,35,35,36,36,37,37,38,38,39,39,40,40,41,41,42,42,43,43,44,44,45,45,47,47,48,48,49,49,50,50,51,51,52,52,53,53,54,54,55,55,56,56,57,57,58,58,59,59,60,60],"right_children":[2,4,6,8,10,12,14,16,18,20,22,24,26,28,30,32,34,36,38,40,42,-1,44,46,48,50,52,54,56,58,60,62,64,66,68,70,72,74,76,78,80,82,84,86,88,90,-1,92,94,96,98,100,102,104,106,108,110,112,114,116,118,-1,-1,-1,-1,-1,-1,-1,-1,-1,-1,-1,-1,-1,-1,-1,-1,-1,-1,-1,-1,-1,-1,-1,-1,-1,-1,-1,-1,-1,-1,-1,-1,-1,-1,-1,-1,-1,-1,-1,-1,-1,-1,-1,-1,-1,-1,-1,-1,-1,-1,-1,-1,-1,-1,-1,-1,-1,-1],"split_conditions":[4.668983E-1,-3.2828736E-1,2.8364558E0,-1.3652754E-1,4.5852196E-1,2.6222947E0,-2.2987429E-2,-7.5409086E-3,-1.3045248E0,-1.3646734E-1,-7.5866664E-3,-1.3654342E-1,-7.534288E-3,5.48926E-1,-6.2827915E-2,-2.4672828E0,-2.647417E-2,-2.232963E0,-1.1652424E0,-7.5839427E-3,-1.6765812E-1,-1.2562017E-2,-7.5784535E-3,1E0,9.7559327E-1,-2.6361573E-2,-1.721137E-2,-1.0092835E-1,-7.5653377E-3,5.48926E-1,1.6572417E-1,-3.002113E0,-5.815843E-1,-7.5361733E-3,-1.3045248E0,-3.002113E0,-1.2993519E-1,-1.3566363E-1,-6.037114E-1,-1.9137006E-2,-7.3187402E-3,1E0,-1.616481E-1,-7.5846547E-3,-7.562698E-3,7.062004E-1,-7.4951476E-3,1E0,1E0,-7.564039E-3,-4.698926E-2,-7.5270804E-3,2.045004E-3,-1.1659442E-1,5.853578E-2,-7.5826016E-3,-1.3628091E-1,-7.5401543E-3,-4.899572E-2,-4.983296E-2,1.8809775E-1,-1.6298914E-2,-4.2535388E-4,-6.0958057E-3,-1.406203E-3,-1.0673782E-2,-8.493682E-3,-8.435693E-3,-1.6570578E-3,-1.4500298E-2,-9.857103E-3,-5.247608E-3,-6.9704703E-3,-2.049362E-3,9.051638E-3,-3.7423566E-3,-1.0560149E-3,1.7269378E-3,3.6779214E-3,-1.1849824E-4,-1.4019146E-3,-8.3215954E-4,-3.278783E-3,5.2676387E-3,1.2630316E-4,4.779552E-3,-5.045165E-3,1.2764803E-2,2.0742237E-3,-6.78037E-5,6.426245E-3,3.8487073E-3,-5.0751767E-3,5.8515277E-3,1.9357184E-2,9.09889E-2,2.1957553E-3,5.9889993E-3,2.2885041E-2,2.8527094E-4,-1.2261083E-2,9.313391E-3,-6.13358E-4,1.2668023E-2,2.2880717E-3,3.332534E-2,-2.7995922E-3,6.2639676E-2,3.3166867E-2,6.2434627E-3,2.7155606E-2,5.5473723E-2,1.3197604E-2,-5.3499746E-3,2.1486044E-2,7.031708E-2,1.4221507E-2,-1.2765668E-2,6.4679705E-2],"split_indices":[5,5,5,2,5,5,1,0,5,2,0,2,0,3,2,5,1,5,5,0,5,0,0,6,5,1,3,2,0,3,3,5,5,0,5,5,2,2,5,3,0,6,5,0,0,5,0,6,6,0,4,0,3,2,2,0,2,0,4,4,1,0,0,0,0,0,0,0,0,0,0,0,0,0,0,0,0,0,0,0,0,0,0,0,0,0,0,0,0,0,0,0,0,0,0,0,0,0,0,0,0,0,0,0,0,0,0,0,0,0,0,0,0,0,0,0,0,0,0],"split_type":[0,0,0,0,0,0,0,0,0,0,0,0,0,0,0,0,0,0,0,0,0,0,0,0,0,0,0,0,0,0,0,0,0,0,0,0,0,0,0,0,0,0,0,0,0,0,0,0,0,0,0,0,0,0,0,0,0,0,0,0,0,0,0,0,0,0,0,0,0,0,0,0,0,0,0,0,0,0,0,0,0,0,0,0,0,0,0,0,0,0,0,0,0,0,0,0,0,0,0,0,0,0,0,0,0,0,0,0,0,0,0,0,0,0,0,0,0,0,0],"sum_hessian":[9.6115E4,7.939436E4,1.6720645E4,2.290548E4,5.648888E4,1.5215413E4,1.5052311E3,4.7967275E3,1.8108752E4,5.5854055E4,6.348214E2,1.4559903E4,6.555105E2,1.3287068E3,1.7652434E2,2.292018E3,2.5047095E3,1.01009296E3,1.709866E4,9.881946E3,4.597211E4,5.6207605E2,7.274538E1,5.7876074E2,1.3981142E4,4.8719383E1,6.067911E2,1.295671E3,3.3035744E1,7.274538E1,1.0377896E2,5.657467E2,1.7262715E3,2.3678948E3,1.368147E2,2.5527621E2,7.548167E2,2.4214917E3,1.4677168E4,7.365557E3,2.5163894E3,2.8771783E4,1.7200326E4,7.007582E0,6.573779E1,1.668472E1,5.6207605E2,3.6747065E3,1.0306436E4,1.1011915E1,3.7707466E1,5.760912E2,3.0699884E1,1.2536255E3,4.2045494E1,1.968797E1,1.3347776E1,5.7395435E1,1.5349942E1,9.243335E1,1.134561E1,2.6695552E0,5.6307715E2,1.1478444E3,5.7842706E2,1.6862281E3,6.816667E2,6.673888E0,1.3014081E2,9.8106155E1,1.5717006E2,3.156749E2,4.391418E2,1.7356149E3,6.8587665E2,7.4464023E3,7.2307656E3,1.2460786E3,6.1194785E3,1.9707991E3,5.4559033E2,2.202687E4,6.7449126E3,8.832181E2,1.6317108E4,1.3347776E0,5.672805E0,3.336944E0,6.2400852E1,6.3401937E0,1.0344526E1,3.1126304E3,5.6207605E2,9.744359E3,5.6207605E2,4.6717215E0,6.3401937E0,2.0355358E1,1.7352108E1,4.6717215E0,5.714195E2,1.5683637E1,1.5016248E1,1.2336039E3,2.0021664E1,2.9031412E1,1.3014082E1,7.007582E0,1.26803875E1,1.0344526E1,3.0032496E0,4.3046577E1,1.4348859E1,5.3391104E0,1.0010832E1,2.3358607E0,9.009749E1,1.668472E0,9.677137E0],"tree_param":{"num_deleted":"0","num_feature":"8","num_nodes":"119","size_leaf_vector":"1"}},{"base_weights":[4.0155617E-5,-2.1495853E-2,1.02300376E-1,-6.0430646E-2,-5.7057575E-3,8.383433E-2,2.887158E-1,-1.2770414E-1,-4.259935E-2,-3.4222216E-3,-2.0614147E-1,9.512958E-2,-1.6666116E-1,2.5462815E-1,5.418524E-1,-6.740457E-2,-1.8279445E-1,-1.582815E-1,-3.7168875E-2,4.548505E-2,-1.3938033E-2,-1.1935032E-2,4.3900285E-2,-1.3593861E-1,1.04711026E-1,-2.3151094E-1,2.7037618E-1,2.4407816E-1,6.461352E-1,7.364443E-1,3.9876923E-1,-1.0254714E-2,-8.6059466E-2,-1.9100083E-1,-3.9682988E-2,-2.4122564E-1,-1.3370074E-1,-6.844124E-2,-2.1450274E-2,6.342239E-2,-8.246267E-3,-2.7634416E-2,5.994143E-3,7.542501E-3,7.579821E-2,7.249499E-2,-7.1210572E-3,4.71441E-2,1.2521996E-1,-4.0723337E-3,-2.3319912E-1,9.815622E-1,1.5378647E-1,2.3767143E-1,4.228182E-1,8.8684577E-1,2.4705258E-1,6.644474E-1,9.51507E-2,3.1312862E-1,1.0065092E0,-3.9115825E-4,-1.3989395E-2,-5.794001E-3,-1.3408802E-3,-1.014041E-2,-8.0696205E-3,-4.5245024E-3,-1.048014E-3,-1.4621704E-2,-1.0314415E-2,-5.514219E-3,-7.505351E-3,-3.4447152E-3,-5.4204394E-4,7.3983106E-3,-1.5191485E-3,2.6938028E-3,4.2528533E-3,-6.866466E-4,5.767437E-4,-2.316008E-3,-1.08773405E-4,-2.4466564E-7,2.04714E-3,3.2951373E-3,-2.2978275E-3,3.981277E-3,-0E0,6.636326E-4,8.440428E-3,3.656334E-3,-4.8218686E-3,5.5589816E-3,1.8391043E-2,-3.4949526E-3,2.9366284E-3,-1.1702548E-2,-1.4897989E-3,6.5114694E-3,8.737034E-2,5.26766E-3,2.4856776E-2,1.19772E-2,-2.942113E-3,3.290608E-2,-1.166405E-3,7.094905E-2,3.5529267E-2,2.2580354E-3,2.0185968E-2,4.2213794E-2,1.0077297E-2,6.785518E-2,1.3518237E-2,-1.236658E-2,6.17486E-2],"categories":[],"categories_nodes":[],"categories_segments":[],"categories_sizes":[],"default_left":[0,0,0,0,0,0,0,0,0,0,0,0,0,0,0,0,0,0,0,0,0,0,0,0,0,0,0,0,0,0,0,0,0,0,0,0,0,1,0,0,0,0,0,0,0,0,0,0,0,0,0,0,0,0,0,0,0,0,0,0,0,0,0,0,0,0,0,0,0,0,0,0,0,0,0,0,0,0,0,0,0,0,0,0,0,0,0,0,0,0,0,0,0,0,0,0,0,0,0,0,0,0,0,0,0,0,0,0,0,0,0,0,0,0,0,0,0],"id":13,"left_children":[1,3,5,7,9,11,13,15,17,19,21,23,25,27,29,31,33,35,37,39,41,-1,43,45,47,49,51,53,55,57,59,61,63,65,67,69,71,73,75,77,79,81,83,85,87,89,-1,91,93,95,97,99,101,103,105,107,109,111,-1,113,115,-1,-1,-1,-1,-1,-1,-1,-1,-1,-1,-1,-1,-1,-1,-1,-1,-1,-1,-1,-1,-1,-1,-1,-1,-1,-1,-1,-1,-1,-1,-1,-1,-1,-1,-1,-1,-1,-1,-1,-1,-1,-1,-1,-1,-1,-1,-1,-1,-1,-1,-1,-1,-1,-1,-1,-1],"loss_changes":[2.1168433E2,4.880404E1,5.7500427E1,2.7455536E1,2.5833876E1,4.3062157E1,1.2779396E1,1.5900345E1,1.135128E1,2.8723715E1,5.206278E0,3.224849E1,1.8665384E1,5.2454834E0,4.5355835E0,2.4341307E0,2.9121246E0,1.5834942E0,8.493437E0,9.531191E0,1.2552931E1,0E0,7.6619536E-2,8.0067444E-1,1.6484665E1,1.951065E-1,6.791002E0,1.3183289E0,2.9371023E0,4.6726303E0,5.006323E0,3.4048623E-1,3.0340614E0,7.590027E-1,1.1805394E-1,2.175579E-1,1.9893074E-1,1.4222717E-1,1.7421345E1,1.5121174E0,2.6877993E-1,1.2959415E1,3.9293096E0,1.2066709E-1,1.1851415E-2,8.0423474E-2,0E0,1.3717375E1,3.5020355E1,2.8670263E-2,6.501007E-2,7.198741E0,1.1248249E0,7.2878265E-1,4.5977364E0,7.1915054E-1,3.906963E-1,5.6418056E0,0E0,3.6416197E0,3.9406872E0,0E0,0E0,0E0,0E0,0E0,0E0,0E0,0E0,0E0,0E0,0E0,0E0,0E0,0E0,0E0,0E0,0E0,0E0,0E0,0E0,0E0,0E0,0E0,0E0,0E0,0E0,0E0,0E0,0E0,0E0,0E0,0E0,0E0,0E0,0E0,0E0,0E0,0E0,0E0,0E0,0E0,0E0,0E0,0E0,0E0,0E0,0E0,0E0,0E0,0E0,0E0,0E0,0E0,0E0,0E0,0E0],"parents":[2147483647,0,0,1,1,2,2,3,3,4,4,5,5,6,6,7,7,8,8,9,9,10,10,11,11,12,12,13,13,14,14,15,15,16,16,17,17,18,18,19,19,20,20,22,22,23,23,24,24,25,25,26,26,27,27,28,28,29,29,30,30,31,31,32,32,33,33,34,34,35,35,36,36,37,37,38,38,39,39,40,40,41,41,42,42,43,43,44,44,45,45,47,47,48,48,49,49,50,50,51,51,52,52,53,53,54,54,55,55,56,56,57,57,59,59,60,60],"right_children":[2,4,6,8,10,12,14,16,18,20,22,24,26,28,30,32,34,36,38,40,42,-1,44,46,48,50,52,54,56,58,60,62,64,66,68,70,72,74,76,78,80,82,84,86,88,90,-1,92,94,96,98,100,102,104,106,108,110,112,-1,114,116,-1,-1,-1,-1,-1,-1,-1,-1,-1,-1,-1,-1,-1,-1,-1,-1,-1,-1,-1,-1,-1,-1,-1,-1,-1,-1,-1,-1,-1,-1,-1,-1,-1,-1,-1,-1,-1,-1,-1,-1,-1,-1,-1,-1,-1,-1,-1,-1,-1,-1,-1,-1,-1,-1,-1,-1],"split_conditions":[4.668983E-1,-3.2828736E-1,2.8364558E0,-1.3652754E-1,4.5852196E-1,2.6222947E0,-2.2987429E-2,-7.5409086E-3,-1.4473535E0,-1.3646734E-1,-7.5866664E-3,-1.3654342E-1,-2.64297E-2,5.48926E-1,-6.2827915E-2,-2.4672828E0,-2.647417E-2,-2.4672828E0,-1.3649893E-1,-7.5725033E-3,-1.8114999E-1,-1.1935032E-2,-7.4621313E-3,1E0,9.7559327E-1,-7.518239E-3,-4.9501874E-2,-1.0092835E-1,-7.5653377E-3,-6.7559436E-2,1.6572417E-1,-2.647417E-2,-5.985588E-1,-7.5361733E-3,-5.815843E-1,-7.5842775E-3,-1.2927751E-1,7.136795E-2,-1.3649547E-1,-1.3649087E-1,-1.793001E-2,-1.2845623E-1,1.8310483E-1,-7.5350422E-3,-7.343379E-3,1.4001772E0,-7.1210572E-3,1E0,1E0,-7.528631E-3,-4.9579866E-2,-7.5710784E-3,-4.258675E-3,-7.4487226E-3,-4.9386147E-2,-4.980769E-2,-4.7390606E-2,-7.3558604E-3,9.51507E-2,-4.983296E-2,1.8809775E-1,-3.9115825E-4,-1.3989395E-2,-5.794001E-3,-1.3408802E-3,-1.014041E-2,-8.0696205E-3,-4.5245024E-3,-1.048014E-3,-1.4621704E-2,-1.0314415E-2,-5.514219E-3,-7.505351E-3,-3.4447152E-3,-5.4204394E-4,7.3983106E-3,